<?xml version="1.0"?>
<opencv_storage>
<cascade>
  <stageType>BOOST</stageType>
  <featureType>HAAR</featureType>
  <height>20</height>
  <width>20</width>
  <stageParams>
    <boostType>GAB</boostType>
    <minHitRate>9.9500000476837158e-01</minHitRate>
    <maxFalseAlarm>5.0000000000000000e-01</maxFalseAlarm>
    <weightTrimRate>9.4999999999999996e-01</weightTrimRate>
    <maxDepth>1</maxDepth>
    <maxWeakCount>100</maxWeakCount></stageParams>
  <featureParams>
    <maxCatCount>0</maxCatCount>
    <featSize>1</featSize>
    <mode>BASIC</mode></featureParams>
  <stageNum>20</stageNum>
  <stages>
    <!-- stage 0 -->
    <_>
      <maxWeakCount>7</maxWeakCount>
      <stageThreshold>-8.7658900022506714e-01</stageThreshold>
      <weakClassifiers>
        <_>
          <internalNodes>
            0 -1 383 -1.9520509988069534e-02</internalNodes>
          <leafValues>
            -7.2146117687225342e-01 5.2715653181076050e-01</leafValues></_>
        <_>
          <internalNodes>
            0 -1 298 -6.6903173923492432e-02</internalNodes>
          <leafValues>
            7.4521034955978394e-01 -3.8311162590980530e-01</leafValues></_>
        <_>
          <internalNodes>
            0 -1 295 -1.6967624425888062e-02</internalNodes>
          <leafValues>
            -9.3446081876754761e-01 2.4425177276134491e-01</leafValues></_>
        <_>
          <internalNodes>
            0 -1 25 1.3660509139299393e-02</internalNodes>
          <leafValues>
            -3.0739784240722656e-01 6.6272372007369995e-01</leafValues></_>
        <_>
          <internalNodes>
            0 -1 5 2.0000852644443512e-02</internalNodes>
          <leafValues>
            -1.8624377250671387e-01 6.8601047992706299e-01</leafValues></_>
        <_>
          <internalNodes>
            0 -1 336 8.1206541508436203e-03</internalNodes>
          <leafValues>
            -1.8248344957828522e-01 7.9244339466094971e-01</leafValues></_>
        <_>
          <internalNodes>
            0 -1 324 -6.4830905757844448e-03</internalNodes>
          <leafValues>
            7.7110415697097778e-01 -2.1239714324474335e-01</leafValues></_></weakClassifiers></_>
    <!-- stage 1 -->
    <_>
      <maxWeakCount>9</maxWeakCount>
      <stageThreshold>-9.8932248353958130e-01</stageThreshold>
      <weakClassifiers>
        <_>
          <internalNodes>
            0 -1 70 -2.5529089570045471e-01</internalNodes>
          <leafValues>
            -5.2621358633041382e-01 5.0847458839416504e-01</leafValues></_>
        <_>
          <internalNodes>
            0 -1 92 4.7320730984210968e-02</internalNodes>
          <leafValues>
            -3.5756650567054749e-01 4.9779814481735229e-01</leafValues></_>
        <_>
          <internalNodes>
            0 -1 335 -3.7762396037578583e-02</internalNodes>
          <leafValues>
            6.6403156518936157e-01 -2.2204412519931793e-01</leafValues></_>
        <_>
          <internalNodes>
            0 -1 86 -2.5402575731277466e-02</internalNodes>
          <leafValues>
            8.2351905107498169e-01 -1.5346853435039520e-01</leafValues></_>
        <_>
          <internalNodes>
            0 -1 294 -1.5444150194525719e-02</internalNodes>
          <leafValues>
            -8.3293706178665161e-01 1.7358939349651337e-01</leafValues></_>
        <_>
          <internalNodes>
            0 -1 263 -4.8631250858306885e-02</internalNodes>
          <leafValues>
            6.7197394371032715e-01 -1.9845138490200043e-01</leafValues></_>
        <_>
          <internalNodes>
            0 -1 44 4.8614945262670517e-03</internalNodes>
          <leafValues>
            -2.6193562150001526e-01 4.2445740103721619e-01</leafValues></_>
        <_>
          <internalNodes>
            0 -1 290 3.0019486322999001e-02</internalNodes>
          <leafValues>
            -1.4826156198978424e-01 6.4220845699310303e-01</leafValues></_>
        <_>
          <internalNodes>
            0 -1 277 3.2305293716490269e-03</internalNodes>
          <leafValues>
            1.3908720016479492e-01 -8.8831079006195068e-01</leafValues></_></weakClassifiers></_>
    <!-- stage 2 -->
    <_>
      <maxWeakCount>10</maxWeakCount>
      <stageThreshold>-9.6366041898727417e-01</stageThreshold>
      <weakClassifiers>
        <_>
          <internalNodes>
            0 -1 373 -1.1084461212158203e-01</internalNodes>
          <leafValues>
            -4.7535210847854614e-01 6.5027320384979248e-01</leafValues></_>
        <_>
          <internalNodes>
            0 -1 95 -6.7332839965820313e-01</internalNodes>
          <leafValues>
            -2.1542876958847046e-01 5.2837562561035156e-01</leafValues></_>
        <_>
          <internalNodes>
            0 -1 206 -4.9502238631248474e-02</internalNodes>
          <leafValues>
            4.9446967244148254e-01 -2.3554834723472595e-01</leafValues></_>
        <_>
          <internalNodes>
            0 -1 31 4.2830169200897217e-02</internalNodes>
          <leafValues>
            -1.9568994641304016e-01 5.2476447820663452e-01</leafValues></_>
        <_>
          <internalNodes>
            0 -1 257 -6.9672033190727234e-02</internalNodes>
          <leafValues>
            -8.9672631025314331e-01 1.0750324279069901e-01</leafValues></_>
        <_>
          <internalNodes>
            0 -1 372 -1.9912126008421183e-03</internalNodes>
          <leafValues>
            -6.8227994441986084e-01 1.1317203193902969e-01</leafValues></_>
        <_>
          <internalNodes>
            0 -1 314 -6.2060326337814331e-02</internalNodes>
          <leafValues>
            4.9734342098236084e-01 -1.8668490648269653e-01</leafValues></_>
        <_>
          <internalNodes>
            0 -1 223 4.9171280115842819e-03</internalNodes>
          <leafValues>
            8.4617048501968384e-02 -8.3105915784835815e-01</leafValues></_>
        <_>
          <internalNodes>
            0 -1 384 -2.2437620908021927e-02</internalNodes>
          <leafValues>
            1. -9.0371012687683105e-02</leafValues></_>
        <_>
          <internalNodes>
            0 -1 258 -3.1644260161556304e-05</internalNodes>
          <leafValues>
            3.0199417471885681e-01 -2.6598957180976868e-01</leafValues></_></weakClassifiers></_>
    <!-- stage 3 -->
    <_>
      <maxWeakCount>10</maxWeakCount>
      <stageThreshold>-8.9290338754653931e-01</stageThreshold>
      <weakClassifiers>
        <_>
          <internalNodes>
            0 -1 93 9.9916465580463409e-02</internalNodes>
          <leafValues>
            -4.9003985524177551e-01 3.8152611255645752e-01</leafValues></_>
        <_>
          <internalNodes>
            0 -1 333 -4.8147991299629211e-02</internalNodes>
          <leafValues>
            4.9585387110710144e-01 -2.2391429543495178e-01</leafValues></_>
        <_>
          <internalNodes>
            0 -1 73 -1.4891697466373444e-01</internalNodes>
          <leafValues>
            1.0321161895990372e-01 -8.5452091693878174e-01</leafValues></_>
        <_>
          <internalNodes>
            0 -1 329 -1.7996637616306543e-03</internalNodes>
          <leafValues>
            -7.8589349985122681e-01 9.1525591909885406e-02</leafValues></_>
        <_>
          <internalNodes>
            0 -1 213 1.1295978911221027e-03</internalNodes>
          <leafValues>
            -2.5021138787269592e-01 3.3642551302909851e-01</leafValues></_>
        <_>
          <internalNodes>
            0 -1 111 -6.4191162586212158e-02</internalNodes>
          <leafValues>
            5.5313599109649658e-01 -1.7967881262302399e-01</leafValues></_>
        <_>
          <internalNodes>
            0 -1 329 2.2261296398937702e-03</internalNodes>
          <leafValues>
            1.0432252287864685e-01 -9.6063029766082764e-01</leafValues></_>
        <_>
          <internalNodes>
            0 -1 47 7.7118021436035633e-03</internalNodes>
          <leafValues>
            7.5289845466613770e-02 -6.9732439517974854e-01</leafValues></_>
        <_>
          <internalNodes>
            0 -1 60 3.7753283977508545e-03</internalNodes>
          <leafValues>
            -2.0985236763954163e-01 3.0217239260673523e-01</leafValues></_>
        <_>
          <internalNodes>
            0 -1 18 -1.3067630119621754e-02</internalNodes>
          <leafValues>
            -6.4463788270950317e-01 8.6443766951560974e-02</leafValues></_></weakClassifiers></_>
    <!-- stage 4 -->
    <_>
      <maxWeakCount>14</maxWeakCount>
      <stageThreshold>-7.8400534391403198e-01</stageThreshold>
      <weakClassifiers>
        <_>
          <internalNodes>
            0 -1 90 4.6269908547401428e-02</internalNodes>
          <leafValues>
            -4.8717948794364929e-01 1.8012422323226929e-01</leafValues></_>
        <_>
          <internalNodes>
            0 -1 87 -9.1341659426689148e-03</internalNodes>
          <leafValues>
            5.3582358360290527e-01 -1.7765240371227264e-01</leafValues></_>
        <_>
          <internalNodes>
            0 -1 79 -7.5714722275733948e-02</internalNodes>
          <leafValues>
            1.0105411708354950e-01 -8.1992930173873901e-01</leafValues></_>
        <_>
          <internalNodes>
            0 -1 34 -7.0965974591672421e-03</internalNodes>
          <leafValues>
            3.7661850452423096e-01 -1.6648019850254059e-01</leafValues></_>
        <_>
          <internalNodes>
            0 -1 39 -2.9029324650764465e-02</internalNodes>
          <leafValues>
            7.6367509365081787e-01 -9.1828487813472748e-02</leafValues></_>
        <_>
          <internalNodes>
            0 -1 144 6.1798444949090481e-04</internalNodes>
          <leafValues>
            -2.8797248005867004e-01 2.3183229565620422e-01</leafValues></_>
        <_>
          <internalNodes>
            0 -1 137 2.7647867798805237e-02</internalNodes>
          <leafValues>
            -1.0581296682357788e-01 5.6787294149398804e-01</leafValues></_>
        <_>
          <internalNodes>
            0 -1 229 -7.7449381351470947e-02</internalNodes>
          <leafValues>
            4.2140561342239380e-01 -1.4149303734302521e-01</leafValues></_>
        <_>
          <internalNodes>
            0 -1 327 3.8126809522509575e-03</internalNodes>
          <leafValues>
            -1.1026303470134735e-01 5.4217725992202759e-01</leafValues></_>
        <_>
          <internalNodes>
            0 -1 88 5.6075425818562508e-03</internalNodes>
          <leafValues>
            -1.0544680804014206e-01 4.2792138457298279e-01</leafValues></_>
        <_>
          <internalNodes>
            0 -1 121 1.3992635533213615e-02</internalNodes>
          <leafValues>
            -2.1323680877685547e-01 2.8128525614738464e-01</leafValues></_>
        <_>
          <internalNodes>
            0 -1 57 -2.3330211639404297e-01</internalNodes>
          <leafValues>
            -6.5858703851699829e-01 9.1086111962795258e-02</leafValues></_>
        <_>
          <internalNodes>
            0 -1 387 -4.2897630482912064e-03</internalNodes>
          <leafValues>
            -1.3080501556396484e-01 4.8391306400299072e-01</leafValues></_>
        <_>
          <internalNodes>
            0 -1 307 -6.0758611653000116e-04</internalNodes>
          <leafValues>
            -5.1374340057373047e-01 1.1006777733564377e-01</leafValues></_></weakClassifiers></_>
    <!-- stage 5 -->
    <_>
      <maxWeakCount>17</maxWeakCount>
      <stageThreshold>-9.9548745155334473e-01</stageThreshold>
      <weakClassifiers>
        <_>
          <internalNodes>
            0 -1 114 1.0633526369929314e-02</internalNodes>
          <leafValues>
            -4.7319346666336060e-01 1.6149067878723145e-01</leafValues></_>
        <_>
          <internalNodes>
            0 -1 328 -5.4018211085349321e-04</internalNodes>
          <leafValues>
            3.4191960096359253e-01 -2.0375683903694153e-01</leafValues></_>
        <_>
          <internalNodes>
            0 -1 288 3.7609653081744909e-03</internalNodes>
          <leafValues>
            -1.3411216437816620e-01 4.7642755508422852e-01</leafValues></_>
        <_>
          <internalNodes>
            0 -1 119 4.3396865949034691e-03</internalNodes>
          <leafValues>
            -3.1158801913261414e-01 2.1388368308544159e-01</leafValues></_>
        <_>
          <internalNodes>
            0 -1 10 6.1952620744705200e-03</internalNodes>
          <leafValues>
            1.6694025695323944e-01 -6.1209595203399658e-01</leafValues></_>
        <_>
          <internalNodes>
            0 -1 259 -5.6254526134580374e-04</internalNodes>
          <leafValues>
            3.8875636458396912e-01 -1.9820499420166016e-01</leafValues></_>
        <_>
          <internalNodes>
            0 -1 268 1.5627881512045860e-03</internalNodes>
          <leafValues>
            -1.5053689479827881e-01 5.2729368209838867e-01</leafValues></_>
        <_>
          <internalNodes>
            0 -1 268 -2.4157189764082432e-03</internalNodes>
          <leafValues>
            5.3782927989959717e-01 -9.1132961213588715e-02</leafValues></_>
        <_>
          <internalNodes>
            0 -1 173 1.2639859924092889e-03</internalNodes>
          <leafValues>
            -1.4638443291187286e-01 4.2479351162910461e-01</leafValues></_>
        <_>
          <internalNodes>
            0 -1 24 8.2231443375349045e-03</internalNodes>
          <leafValues>
            -1.6134221851825714e-01 4.2985478043556213e-01</leafValues></_>
        <_>
          <internalNodes>
            0 -1 378 -1.3372492045164108e-02</internalNodes>
          <leafValues>
            -6.3831341266632080e-01 1.2112287431955338e-01</leafValues></_>
        <_>
          <internalNodes>
            0 -1 110 4.2453259229660034e-03</internalNodes>
          <leafValues>
            -2.1205759048461914e-01 3.4093198180198669e-01</leafValues></_>
        <_>
          <internalNodes>
            0 -1 284 1.2313565239310265e-02</internalNodes>
          <leafValues>
            -1.9317319989204407e-01 3.6415189504623413e-01</leafValues></_>
        <_>
          <internalNodes>
            0 -1 19 4.5030731707811356e-03</internalNodes>
          <leafValues>
            -2.2361649572849274e-01 2.8413912653923035e-01</leafValues></_>
        <_>
          <internalNodes>
            0 -1 215 1.3628751039505005e-01</internalNodes>
          <leafValues>
            6.6679634153842926e-02 -1.</leafValues></_>
        <_>
          <internalNodes>
            0 -1 313 2.1717390045523643e-03</internalNodes>
          <leafValues>
            -1.8865633010864258e-01 4.1751369833946228e-01</leafValues></_>
        <_>
          <internalNodes>
            0 -1 72 2.6151896454393864e-03</internalNodes>
          <leafValues>
            -2.1638691425323486e-01 3.0429804325103760e-01</leafValues></_></weakClassifiers></_>
    <!-- stage 6 -->
    <_>
      <maxWeakCount>9</maxWeakCount>
      <stageThreshold>-1.0721406936645508e+00</stageThreshold>
      <weakClassifiers>
        <_>
          <internalNodes>
            0 -1 222 -7.2520494461059570e-02</internalNodes>
          <leafValues>
            4.4094488024711609e-01 -5.2917504310607910e-01</leafValues></_>
        <_>
          <internalNodes>
            0 -1 2 -1.4318372122943401e-03</internalNodes>
          <leafValues>
            -8.6779391765594482e-01 9.7309805452823639e-02</leafValues></_>
        <_>
          <internalNodes>
            0 -1 1 -7.2970334440469742e-04</internalNodes>
          <leafValues>
            -5.9659636020660400e-01 1.8519271910190582e-01</leafValues></_>
        <_>
          <internalNodes>
            0 -1 100 -5.6968635320663452e-01</internalNodes>
          <leafValues>
            6.9146084785461426e-01 -1.6178941726684570e-01</leafValues></_>
        <_>
          <internalNodes>
            0 -1 11 -2.0044767297804356e-03</internalNodes>
          <leafValues>
            -5.7570761442184448e-01 1.1309363692998886e-01</leafValues></_>
        <_>
          <internalNodes>
            0 -1 46 3.0045623425394297e-03</internalNodes>
          <leafValues>
            1.6658785939216614e-01 -6.6618049144744873e-01</leafValues></_>
        <_>
          <internalNodes>
            0 -1 216 8.2136327400803566e-03</internalNodes>
          <leafValues>
            8.8199049234390259e-02 -8.3565229177474976e-01</leafValues></_>
        <_>
          <internalNodes>
            0 -1 293 -4.2371012270450592e-02</internalNodes>
          <leafValues>
            2.4702863395214081e-01 -3.0986964702606201e-01</leafValues></_>
        <_>
          <internalNodes>
            0 -1 178 -4.5704813674092293e-03</internalNodes>
          <leafValues>
            -8.9912503957748413e-01 1.1107869446277618e-01</leafValues></_></weakClassifiers></_>
    <!-- stage 7 -->
    <_>
      <maxWeakCount>18</maxWeakCount>
      <stageThreshold>-9.9262505769729614e-01</stageThreshold>
      <weakClassifiers>
        <_>
          <internalNodes>
            0 -1 135 -7.9476229846477509e-02</internalNodes>
          <leafValues>
            5.4609930515289307e-01 -3.7377050518989563e-01</leafValues></_>
        <_>
          <internalNodes>
            0 -1 147 3.8744218647480011e-02</internalNodes>
          <leafValues>
            -2.3983596265316010e-01 3.7632265686988831e-01</leafValues></_>
        <_>
          <internalNodes>
            0 -1 187 -1.5176653861999512e-01</internalNodes>
          <leafValues>
            1.6493329405784607e-01 -4.2527711391448975e-01</leafValues></_>
        <_>
          <internalNodes>
            0 -1 76 1.0051003191620111e-03</internalNodes>
          <leafValues>
            -2.4102228879928589e-01 2.5138527154922485e-01</leafValues></_>
        <_>
          <internalNodes>
            0 -1 53 -1.5953963622450829e-02</internalNodes>
          <leafValues>
            -7.7222114801406860e-01 1.1811960488557816e-01</leafValues></_>
        <_>
          <internalNodes>
            0 -1 202 -5.2748292684555054e-02</internalNodes>
          <leafValues>
            6.6363596916198730e-01 -8.8083431124687195e-02</leafValues></_>
        <_>
          <internalNodes>
            0 -1 116 -1.4999527484178543e-03</internalNodes>
          <leafValues>
            -6.1496770381927490e-01 9.5275938510894775e-02</leafValues></_>
        <_>
          <internalNodes>
            0 -1 249 -8.5087530314922333e-03</internalNodes>
          <leafValues>
            4.0366277098655701e-01 -1.5957909822463989e-01</leafValues></_>
        <_>
          <internalNodes>
            0 -1 82 1.5473270788788795e-02</internalNodes>
          <leafValues>
            -1.2193372100591660e-01 4.4611102342605591e-01</leafValues></_>
        <_>
          <internalNodes>
            0 -1 35 -3.7247510626912117e-03</internalNodes>
          <leafValues>
            2.3839297890663147e-01 -2.3447164893150330e-01</leafValues></_>
        <_>
          <internalNodes>
            0 -1 271 -9.1580972075462341e-03</internalNodes>
          <leafValues>
            -6.8124449253082275e-01 6.0819379985332489e-02</leafValues></_>
        <_>
          <internalNodes>
            0 -1 260 -2.9803249053657055e-03</internalNodes>
          <leafValues>
            3.2547575235366821e-01 -2.2601835429668427e-01</leafValues></_>
        <_>
          <internalNodes>
            0 -1 78 -1.8788456916809082e-02</internalNodes>
          <leafValues>
            -8.8624817132949829e-01 6.9518059492111206e-02</leafValues></_>
        <_>
          <internalNodes>
            0 -1 159 8.5507483163382858e-05</internalNodes>
          <leafValues>
            -2.6712387800216675e-01 2.2525091469287872e-01</leafValues></_>
        <_>
          <internalNodes>
            0 -1 101 -6.6648431122303009e-02</internalNodes>
          <leafValues>
            3.6132332682609558e-01 -1.6435320675373077e-01</leafValues></_>
        <_>
          <internalNodes>
            0 -1 49 1.5782935544848442e-02</internalNodes>
          <leafValues>
            8.2261323928833008e-02 -7.3108160495758057e-01</leafValues></_>
        <_>
          <internalNodes>
            0 -1 177 1.4571554958820343e-02</internalNodes>
          <leafValues>
            -2.2178500890731812e-01 2.5761756300926208e-01</leafValues></_>
        <_>
          <internalNodes>
            0 -1 5 1.2170742265880108e-02</internalNodes>
          <leafValues>
            -1.9560623168945313e-01 2.8155982494354248e-01</leafValues></_></weakClassifiers></_>
    <!-- stage 8 -->
    <_>
      <maxWeakCount>17</maxWeakCount>
      <stageThreshold>-8.0899506807327271e-01</stageThreshold>
      <weakClassifiers>
        <_>
          <internalNodes>
            0 -1 344 -2.1539852023124695e-02</internalNodes>
          <leafValues>
            3.6054420471191406e-01 -3.3774834871292114e-01</leafValues></_>
        <_>
          <internalNodes>
            0 -1 347 3.6338535137474537e-03</internalNodes>
          <leafValues>
            -2.0386183261871338e-01 2.9036498069763184e-01</leafValues></_>
        <_>
          <internalNodes>
            0 -1 231 -1.4574283733963966e-02</internalNodes>
          <leafValues>
            2.0544400811195374e-01 -2.8772985935211182e-01</leafValues></_>
        <_>
          <internalNodes>
            0 -1 240 6.0160509310662746e-03</internalNodes>
          <leafValues>
            -9.4028756022453308e-02 5.0984054803848267e-01</leafValues></_>
        <_>
          <internalNodes>
            0 -1 45 6.9863665848970413e-03</internalNodes>
          <leafValues>
            -1.0997518897056580e-01 4.3651244044303894e-01</leafValues></_>
        <_>
          <internalNodes>
            0 -1 50 -7.0971168577671051e-02</internalNodes>
          <leafValues>
            -2.8710794448852539e-01 1.8862223625183105e-01</leafValues></_>
        <_>
          <internalNodes>
            0 -1 13 2.4196404963731766e-02</internalNodes>
          <leafValues>
            -2.0582693815231323e-01 3.0197104811668396e-01</leafValues></_>
        <_>
          <internalNodes>
            0 -1 54 3.0055027455091476e-03</internalNodes>
          <leafValues>
            -1.6453705728054047e-01 4.1297531127929688e-01</leafValues></_>
        <_>
          <internalNodes>
            0 -1 122 4.8690307885408401e-03</internalNodes>
          <leafValues>
            -8.6303845047950745e-02 4.8463749885559082e-01</leafValues></_>
        <_>
          <internalNodes>
            0 -1 127 -3.7518325261771679e-03</internalNodes>
          <leafValues>
            3.8818919658660889e-01 -1.3429699838161469e-01</leafValues></_>
        <_>
          <internalNodes>
            0 -1 363 7.7572092413902283e-03</internalNodes>
          <leafValues>
            7.2189442813396454e-02 -8.7868744134902954e-01</leafValues></_>
        <_>
          <internalNodes>
            0 -1 376 3.4177472116425633e-04</internalNodes>
          <leafValues>
            -2.3883752524852753e-01 2.2004498541355133e-01</leafValues></_>
        <_>
          <internalNodes>
            0 -1 316 8.4711639210581779e-03</internalNodes>
          <leafValues>
            5.1186125725507736e-02 -8.0569869279861450e-01</leafValues></_>
        <_>
          <internalNodes>
            0 -1 375 -1.7742733471095562e-03</internalNodes>
          <leafValues>
            3.8334050774574280e-01 -1.4355625212192535e-01</leafValues></_>
        <_>
          <internalNodes>
            0 -1 184 -6.2230683397501707e-04</internalNodes>
          <leafValues>
            4.2873653769493103e-01 -1.4853818714618683e-01</leafValues></_>
        <_>
          <internalNodes>
            0 -1 351 -3.4581865184009075e-03</internalNodes>
          <leafValues>
            2.3573361337184906e-01 -2.1797429025173187e-01</leafValues></_>
        <_>
          <internalNodes>
            0 -1 377 -1.7241378081962466e-03</internalNodes>
          <leafValues>
            3.3372515439987183e-01 -1.5459500253200531e-01</leafValues></_></weakClassifiers></_>
    <!-- stage 9 -->
    <_>
      <maxWeakCount>23</maxWeakCount>
      <stageThreshold>-9.1477274894714355e-01</stageThreshold>
      <weakClassifiers>
        <_>
          <internalNodes>
            0 -1 211 -1.7883058637380600e-02</internalNodes>
          <leafValues>
            7.3134326934814453e-01 -2.9239764809608459e-01</leafValues></_>
        <_>
          <internalNodes>
            0 -1 299 1.5946619212627411e-02</internalNodes>
          <leafValues>
            -2.4261395633220673e-01 3.2435238361358643e-01</leafValues></_>
        <_>
          <internalNodes>
            0 -1 352 -7.6124966144561768e-03</internalNodes>
          <leafValues>
            2.7513444423675537e-01 -1.7985121905803680e-01</leafValues></_>
        <_>
          <internalNodes>
            0 -1 252 -1.2548572383821011e-02</internalNodes>
          <leafValues>
            -9.1782712936401367e-01 4.1429962962865829e-02</leafValues></_>
        <_>
          <internalNodes>
            0 -1 6 9.0420329943299294e-03</internalNodes>
          <leafValues>
            -2.1210098266601563e-01 2.4553522467613220e-01</leafValues></_>
        <_>
          <internalNodes>
            0 -1 81 1.5696394257247448e-03</internalNodes>
          <leafValues>
            -2.0235235989093781e-01 2.7792713046073914e-01</leafValues></_>
        <_>
          <internalNodes>
            0 -1 8 3.7380296736955643e-02</internalNodes>
          <leafValues>
            6.4259804785251617e-02 -7.3801708221435547e-01</leafValues></_>
        <_>
          <internalNodes>
            0 -1 319 -1.5917515847831964e-03</internalNodes>
          <leafValues>
            3.7280690670013428e-01 -1.2648701667785645e-01</leafValues></_>
        <_>
          <internalNodes>
            0 -1 330 -5.5331781506538391e-02</internalNodes>
          <leafValues>
            -9.4498240947723389e-01 3.9918139576911926e-02</leafValues></_>
        <_>
          <internalNodes>
            0 -1 142 -2.0679049193859100e-03</internalNodes>
          <leafValues>
            -7.6025778055191040e-01 5.2525952458381653e-02</leafValues></_>
        <_>
          <internalNodes>
            0 -1 230 -9.1365911066532135e-03</internalNodes>
          <leafValues>
            5.3636515140533447e-01 -8.6285971105098724e-02</leafValues></_>
        <_>
          <internalNodes>
            0 -1 153 -1.0216363705694675e-02</internalNodes>
          <leafValues>
            1.1208526790142059e-01 -4.5769667625427246e-01</leafValues></_>
        <_>
          <internalNodes>
            0 -1 67 -7.2026131674647331e-03</internalNodes>
          <leafValues>
            4.0985840559005737e-01 -1.0683138668537140e-01</leafValues></_>
        <_>
          <internalNodes>
            0 -1 326 -9.8114628344774246e-03</internalNodes>
          <leafValues>
            2.8464180231094360e-01 -1.8381957709789276e-01</leafValues></_>
        <_>
          <internalNodes>
            0 -1 349 -3.1570263206958771e-02</internalNodes>
          <leafValues>
            -2.2715844213962555e-01 2.4562190473079681e-01</leafValues></_>
        <_>
          <internalNodes>
            0 -1 212 -4.7850692644715309e-03</internalNodes>
          <leafValues>
            -3.5195338726043701e-01 1.3717518746852875e-01</leafValues></_>
        <_>
          <internalNodes>
            0 -1 356 -2.5138830766081810e-02</internalNodes>
          <leafValues>
            6.6843770444393158e-02 -7.9490959644317627e-01</leafValues></_>
        <_>
          <internalNodes>
            0 -1 355 -6.0925455763936043e-03</internalNodes>
          <leafValues>
            -8.2030165195465088e-01 4.3449111282825470e-02</leafValues></_>
        <_>
          <internalNodes>
            0 -1 77 -2.2671669721603394e-03</internalNodes>
          <leafValues>
            -7.3113071918487549e-01 4.9772892147302628e-02</leafValues></_>
        <_>
          <internalNodes>
            0 -1 40 -1.2838000431656837e-02</internalNodes>
          <leafValues>
            3.8470962643623352e-01 -1.2944544851779938e-01</leafValues></_>
        <_>
          <internalNodes>
            0 -1 237 6.2663271091878414e-03</internalNodes>
          <leafValues>
            -1.4074400067329407e-01 3.8423418998718262e-01</leafValues></_>
        <_>
          <internalNodes>
            0 -1 362 3.5025617107748985e-03</internalNodes>
          <leafValues>
            1.1524850130081177e-01 -5.3228628635406494e-01</leafValues></_>
        <_>
          <internalNodes>
            0 -1 305 -1.1314726434648037e-02</internalNodes>
          <leafValues>
            -7.9662901163101196e-01 3.7621024996042252e-02</leafValues></_></weakClassifiers></_>
    <!-- stage 10 -->
    <_>
      <maxWeakCount>22</maxWeakCount>
      <stageThreshold>-9.4301486015319824e-01</stageThreshold>
      <weakClassifiers>
        <_>
          <internalNodes>
            0 -1 353 -9.6713881939649582e-03</internalNodes>
          <leafValues>
            2.4347825348377228e-01 -3.9731284976005554e-01</leafValues></_>
        <_>
          <internalNodes>
            0 -1 7 2.2356417030096054e-02</internalNodes>
          <leafValues>
            -1.9606558978557587e-01 3.1140440702438354e-01</leafValues></_>
        <_>
          <internalNodes>
            0 -1 139 -1.0316774249076843e-01</internalNodes>
          <leafValues>
            -8.5803228616714478e-01 5.8236371725797653e-02</leafValues></_>
        <_>
          <internalNodes>
            0 -1 311 -1.0985337197780609e-02</internalNodes>
          <leafValues>
            3.9367496967315674e-01 -1.1988345533609390e-01</leafValues></_>
        <_>
          <internalNodes>
            0 -1 360 -2.1798869129270315e-03</internalNodes>
          <leafValues>
            2.3839946091175079e-01 -2.3123642802238464e-01</leafValues></_>
        <_>
          <internalNodes>
            0 -1 168 -1.9387453794479370e-02</internalNodes>
          <leafValues>
            4.2073395848274231e-01 -1.2224940955638885e-01</leafValues></_>
        <_>
          <internalNodes>
            0 -1 179 -2.0859516225755215e-03</internalNodes>
          <leafValues>
            2.5291663408279419e-01 -2.1198156476020813e-01</leafValues></_>
        <_>
          <internalNodes>
            0 -1 131 4.2777452617883682e-03</internalNodes>
          <leafValues>
            -7.7370770275592804e-02 4.3117040395736694e-01</leafValues></_>
        <_>
          <internalNodes>
            0 -1 346 1.0592715116217732e-03</internalNodes>
          <leafValues>
            -1.6691258549690247e-01 3.4828546643257141e-01</leafValues></_>
        <_>
          <internalNodes>
            0 -1 354 -2.2140566259622574e-02</internalNodes>
          <leafValues>
            2.8143537044525146e-01 -1.9051542878150940e-01</leafValues></_>
        <_>
          <internalNodes>
            0 -1 234 -8.3591823931783438e-04</internalNodes>
          <leafValues>
            4.3131926655769348e-01 -1.0256249457597733e-01</leafValues></_>
        <_>
          <internalNodes>
            0 -1 69 1.0632706433534622e-01</internalNodes>
          <leafValues>
            -1.4659111201763153e-01 3.4193220734596252e-01</leafValues></_>
        <_>
          <internalNodes>
            0 -1 243 1.2557266280055046e-02</internalNodes>
          <leafValues>
            -9.4400674104690552e-02 4.9923104047775269e-01</leafValues></_>
        <_>
          <internalNodes>
            0 -1 37 -5.3030457347631454e-03</internalNodes>
          <leafValues>
            3.1852596998214722e-01 -1.7601856589317322e-01</leafValues></_>
        <_>
          <internalNodes>
            0 -1 282 -2.8067496605217457e-03</internalNodes>
          <leafValues>
            3.3448538184165955e-01 -1.7068171501159668e-01</leafValues></_>
        <_>
          <internalNodes>
            0 -1 343 2.0374471787363291e-03</internalNodes>
          <leafValues>
            -5.0438243895769119e-02 6.7897379398345947e-01</leafValues></_>
        <_>
          <internalNodes>
            0 -1 331 3.2913757604546845e-04</internalNodes>
          <leafValues>
            1.8452224135398865e-01 -2.8062781691551208e-01</leafValues></_>
        <_>
          <internalNodes>
            0 -1 225 1.8859370611608028e-03</internalNodes>
          <leafValues>
            -1.3905143737792969e-01 4.4853442907333374e-01</leafValues></_>
        <_>
          <internalNodes>
            0 -1 265 -1.9158532377332449e-03</internalNodes>
          <leafValues>
            3.8715550303459167e-01 -1.2154525518417358e-01</leafValues></_>
        <_>
          <internalNodes>
            0 -1 123 5.0204577855765820e-03</internalNodes>
          <leafValues>
            -1.9465914368629456e-01 2.5957268476486206e-01</leafValues></_>
        <_>
          <internalNodes>
            0 -1 128 -3.6917489022016525e-02</internalNodes>
          <leafValues>
            3.5812732577323914e-01 -1.5527115762233734e-01</leafValues></_>
        <_>
          <internalNodes>
            0 -1 180 7.3853202164173126e-02</internalNodes>
          <leafValues>
            -1.1776822805404663e-01 5.0742024183273315e-01</leafValues></_></weakClassifiers></_>
    <!-- stage 11 -->
    <_>
      <maxWeakCount>18</maxWeakCount>
      <stageThreshold>-1.0198879241943359e+00</stageThreshold>
      <weakClassifiers>
        <_>
          <internalNodes>
            0 -1 253 5.1000930368900299e-02</internalNodes>
          <leafValues>
            -3.2467532157897949e-01 3.6296296119689941e-01</leafValues></_>
        <_>
          <internalNodes>
            0 -1 345 -1.0258625447750092e-01</internalNodes>
          <leafValues>
            -2.9915565252304077e-01 2.3394420742988586e-01</leafValues></_>
        <_>
          <internalNodes>
            0 -1 134 -7.7167421579360962e-02</internalNodes>
          <leafValues>
            3.9077687263488770e-01 -1.4661514759063721e-01</leafValues></_>
        <_>
          <internalNodes>
            0 -1 150 2.4536466225981712e-03</internalNodes>
          <leafValues>
            -2.0488636195659637e-01 2.7561089396476746e-01</leafValues></_>
        <_>
          <internalNodes>
            0 -1 209 -3.8271085359156132e-03</internalNodes>
          <leafValues>
            -5.5392438173294067e-01 1.0557080060243607e-01</leafValues></_>
        <_>
          <internalNodes>
            0 -1 287 4.1546938009560108e-03</internalNodes>
          <leafValues>
            1.0059858113527298e-01 -6.1067289113998413e-01</leafValues></_>
        <_>
          <internalNodes>
            0 -1 192 -2.4188291281461716e-03</internalNodes>
          <leafValues>
            -7.8262788057327271e-01 6.8393893539905548e-02</leafValues></_>
        <_>
          <internalNodes>
            0 -1 201 -1.1249030381441116e-01</internalNodes>
          <leafValues>
            9.3963229656219482e-01 -7.2604335844516754e-02</leafValues></_>
        <_>
          <internalNodes>
            0 -1 83 5.5485974997282028e-02</internalNodes>
          <leafValues>
            -6.4204186201095581e-02 6.2180763483047485e-01</leafValues></_>
        <_>
          <internalNodes>
            0 -1 120 2.2780442237854004e-01</internalNodes>
          <leafValues>
            -8.2531742751598358e-02 5.9398412704467773e-01</leafValues></_>
        <_>
          <internalNodes>
            0 -1 71 -3.1319409608840942e-02</internalNodes>
          <leafValues>
            4.0431737899780273e-01 -1.1417555063962936e-01</leafValues></_>
        <_>
          <internalNodes>
            0 -1 1 1.1872381437569857e-03</internalNodes>
          <leafValues>
            8.3517603576183319e-02 -5.2325218915939331e-01</leafValues></_>
        <_>
          <internalNodes>
            0 -1 297 6.9760441780090332e-02</internalNodes>
          <leafValues>
            -7.3532693088054657e-02 7.2349423170089722e-01</leafValues></_>
        <_>
          <internalNodes>
            0 -1 256 -4.7547847032546997e-02</internalNodes>
          <leafValues>
            2.4202373623847961e-01 -2.0405162870883942e-01</leafValues></_>
        <_>
          <internalNodes>
            0 -1 169 2.6646468788385391e-02</internalNodes>
          <leafValues>
            -1.3553114235401154e-01 3.6940556764602661e-01</leafValues></_>
        <_>
          <internalNodes>
            0 -1 105 3.0679663177579641e-04</internalNodes>
          <leafValues>
            -2.7752315998077393e-01 2.0259028673171997e-01</leafValues></_>
        <_>
          <internalNodes>
            0 -1 80 -3.0373912304639816e-03</internalNodes>
          <leafValues>
            -8.9666002988815308e-01 4.5730903744697571e-02</leafValues></_>
        <_>
          <internalNodes>
            0 -1 56 8.4514254704117775e-03</internalNodes>
          <leafValues>
            3.8395173847675323e-02 -8.9036452770233154e-01</leafValues></_></weakClassifiers></_>
    <!-- stage 12 -->
    <_>
      <maxWeakCount>26</maxWeakCount>
      <stageThreshold>-9.6017104387283325e-01</stageThreshold>
      <weakClassifiers>
        <_>
          <internalNodes>
            0 -1 342 -2.4890720844268799e-02</internalNodes>
          <leafValues>
            2.2368420660495758e-01 -3.0884808301925659e-01</leafValues></_>
        <_>
          <internalNodes>
            0 -1 75 -5.9513501822948456e-02</internalNodes>
          <leafValues>
            -7.6905179023742676e-01 5.3647380322217941e-02</leafValues></_>
        <_>
          <internalNodes>
            0 -1 183 -1.2916936539113522e-02</internalNodes>
          <leafValues>
            4.5860365033149719e-01 -8.7780445814132690e-02</leafValues></_>
        <_>
          <internalNodes>
            0 -1 198 2.3192905355244875e-03</internalNodes>
          <leafValues>
            -1.7961342632770538e-01 2.9447019100189209e-01</leafValues></_>
        <_>
          <internalNodes>
            0 -1 309 -1.0847067460417747e-03</internalNodes>
          <leafValues>
            -5.1601099967956543e-01 8.7471276521682739e-02</leafValues></_>
        <_>
          <internalNodes>
            0 -1 379 -4.1548702865839005e-02</internalNodes>
          <leafValues>
            -3.4806168079376221e-01 1.6122782230377197e-01</leafValues></_>
        <_>
          <internalNodes>
            0 -1 285 6.2619671225547791e-03</internalNodes>
          <leafValues>
            -1.5045104920864105e-01 4.0414658188819885e-01</leafValues></_>
        <_>
          <internalNodes>
            0 -1 32 1.0213633067905903e-03</internalNodes>
          <leafValues>
            -2.1155342459678650e-01 2.2136619687080383e-01</leafValues></_>
        <_>
          <internalNodes>
            0 -1 322 1.4078717678785324e-02</internalNodes>
          <leafValues>
            -1.2457635998725891e-01 4.9818146228790283e-01</leafValues></_>
        <_>
          <internalNodes>
            0 -1 149 1.8871942302212119e-03</internalNodes>
          <leafValues>
            -1.3634973764419556e-01 3.1653293967247009e-01</leafValues></_>
        <_>
          <internalNodes>
            0 -1 157 -3.3431034535169601e-03</internalNodes>
          <leafValues>
            3.0437442660331726e-01 -1.6263213753700256e-01</leafValues></_>
        <_>
          <internalNodes>
            0 -1 381 -8.3942990750074387e-04</internalNodes>
          <leafValues>
            -4.9243432283401489e-01 1.0170047730207443e-01</leafValues></_>
        <_>
          <internalNodes>
            0 -1 270 1.0989360511302948e-02</internalNodes>
          <leafValues>
            -1.3350194692611694e-01 3.6400961875915527e-01</leafValues></_>
        <_>
          <internalNodes>
            0 -1 380 -1.6161235180334188e-05</internalNodes>
          <leafValues>
            1.7400656640529633e-01 -2.5678557157516479e-01</leafValues></_>
        <_>
          <internalNodes>
            0 -1 292 -9.4274831935763359e-03</internalNodes>
          <leafValues>
            2.0423594117164612e-01 -2.2098240256309509e-01</leafValues></_>
        <_>
          <internalNodes>
            0 -1 20 2.2271778434514999e-03</internalNodes>
          <leafValues>
            4.7759216278791428e-02 -8.3212572336196899e-01</leafValues></_>
        <_>
          <internalNodes>
            0 -1 242 -1.0630531469359994e-03</internalNodes>
          <leafValues>
            2.2574259340763092e-01 -2.0169019699096680e-01</leafValues></_>
        <_>
          <internalNodes>
            0 -1 382 -7.1737577673047781e-04</internalNodes>
          <leafValues>
            3.1484320759773254e-01 -1.6802334785461426e-01</leafValues></_>
        <_>
          <internalNodes>
            0 -1 194 -6.0406312346458435e-02</internalNodes>
          <leafValues>
            -9.6734535694122314e-01 3.6679778248071671e-02</leafValues></_>
        <_>
          <internalNodes>
            0 -1 300 -5.8207549154758453e-03</internalNodes>
          <leafValues>
            -7.4698877334594727e-01 4.6930544078350067e-02</leafValues></_>
        <_>
          <internalNodes>
            0 -1 129 -3.0254479497671127e-03</internalNodes>
          <leafValues>
            3.7877744436264038e-01 -1.2339946627616882e-01</leafValues></_>
        <_>
          <internalNodes>
            0 -1 273 1.1937941890209913e-03</internalNodes>
          <leafValues>
            9.2975206673145294e-02 -6.2421917915344238e-01</leafValues></_>
        <_>
          <internalNodes>
            0 -1 48 1.0181575082242489e-02</internalNodes>
          <leafValues>
            -2.5459468364715576e-01 1.8952752649784088e-01</leafValues></_>
        <_>
          <internalNodes>
            0 -1 104 2.7930131182074547e-03</internalNodes>
          <leafValues>
            -2.1295079588890076e-01 2.1949455142021179e-01</leafValues></_>
        <_>
          <internalNodes>
            0 -1 145 -7.9927802085876465e-02</internalNodes>
          <leafValues>
            8.3746063709259033e-01 -5.2361037582159042e-02</leafValues></_>
        <_>
          <internalNodes>
            0 -1 228 -4.5168228447437286e-02</internalNodes>
          <leafValues>
            7.1513898670673370e-02 -7.0901381969451904e-01</leafValues></_></weakClassifiers></_>
    <!-- stage 13 -->
    <_>
      <maxWeakCount>25</maxWeakCount>
      <stageThreshold>-8.1438237428665161e-01</stageThreshold>
      <weakClassifiers>
        <_>
          <internalNodes>
            0 -1 154 5.1133884117007256e-03</internalNodes>
          <leafValues>
            -3.7690630555152893e-01 7.5342468917369843e-02</leafValues></_>
        <_>
          <internalNodes>
            0 -1 348 -5.8659622445702553e-03</internalNodes>
          <leafValues>
            -3.9962494373321533e-01 7.5032636523246765e-02</leafValues></_>
        <_>
          <internalNodes>
            0 -1 306 4.0447851642966270e-03</internalNodes>
          <leafValues>
            1.0146115720272064e-01 -3.7682497501373291e-01</leafValues></_>
        <_>
          <internalNodes>
            0 -1 161 1.3864978682249784e-03</internalNodes>
          <leafValues>
            -8.5607677698135376e-02 4.4083535671234131e-01</leafValues></_>
        <_>
          <internalNodes>
            0 -1 62 2.1424293518066406e-02</internalNodes>
          <leafValues>
            -4.9426712095737457e-02 4.1865268349647522e-01</leafValues></_>
        <_>
          <internalNodes>
            0 -1 386 2.6183091104030609e-03</internalNodes>
          <leafValues>
            -5.9455476701259613e-02 7.4363434314727783e-01</leafValues></_>
        <_>
          <internalNodes>
            0 -1 148 2.5098063051700592e-03</internalNodes>
          <leafValues>
            -2.2933465242385864e-01 1.8191048502922058e-01</leafValues></_>
        <_>
          <internalNodes>
            0 -1 296 -2.1184381097555161e-02</internalNodes>
          <leafValues>
            3.1519162654876709e-01 -1.4264696836471558e-01</leafValues></_>
        <_>
          <internalNodes>
            0 -1 221 -1.7671186942607164e-03</internalNodes>
          <leafValues>
            2.4612849950790405e-01 -1.5507622063159943e-01</leafValues></_>
        <_>
          <internalNodes>
            0 -1 51 -9.4293802976608276e-03</internalNodes>
          <leafValues>
            3.2330927252769470e-01 -1.0303069651126862e-01</leafValues></_>
        <_>
          <internalNodes>
            0 -1 21 -1.6711167991161346e-02</internalNodes>
          <leafValues>
            5.3433620929718018e-01 -1.0574015229940414e-01</leafValues></_>
        <_>
          <internalNodes>
            0 -1 185 9.7865857183933258e-02</internalNodes>
          <leafValues>
            8.1923015415668488e-02 -5.0333744287490845e-01</leafValues></_>
        <_>
          <internalNodes>
            0 -1 162 1.1240119114518166e-02</internalNodes>
          <leafValues>
            -9.2803806066513062e-02 4.5830258727073669e-01</leafValues></_>
        <_>
          <internalNodes>
            0 -1 15 5.0453492440283298e-03</internalNodes>
          <leafValues>
            -1.9113059341907501e-01 2.3881046473979950e-01</leafValues></_>
        <_>
          <internalNodes>
            0 -1 217 2.9997998848557472e-02</internalNodes>
          <leafValues>
            -2.0751674473285675e-01 2.0286856591701508e-01</leafValues></_>
        <_>
          <internalNodes>
            0 -1 312 -2.2246427834033966e-02</internalNodes>
          <leafValues>
            4.9015048146247864e-01 -1.1365095525979996e-01</leafValues></_>
        <_>
          <internalNodes>
            0 -1 214 -5.8234836906194687e-03</internalNodes>
          <leafValues>
            2.8519114851951599e-01 -1.8056662380695343e-01</leafValues></_>
        <_>
          <internalNodes>
            0 -1 366 1.1343404185026884e-03</internalNodes>
          <leafValues>
            -1.0368285328149796e-01 4.9389740824699402e-01</leafValues></_>
        <_>
          <internalNodes>
            0 -1 176 1.0202940553426743e-02</internalNodes>
          <leafValues>
            5.0976820290088654e-02 -1.</leafValues></_>
        <_>
          <internalNodes>
            0 -1 96 1.2301599606871605e-02</internalNodes>
          <leafValues>
            -1.5005627274513245e-01 2.9760751128196716e-01</leafValues></_>
        <_>
          <internalNodes>
            0 -1 1 -7.9678371548652649e-04</internalNodes>
          <leafValues>
            -5.1408076286315918e-01 9.2496201395988464e-02</leafValues></_>
        <_>
          <internalNodes>
            0 -1 262 1.2266503181308508e-03</internalNodes>
          <leafValues>
            1.7252352833747864e-01 -2.3069208860397339e-01</leafValues></_>
        <_>
          <internalNodes>
            0 -1 266 -1.3156989216804504e-01</internalNodes>
          <leafValues>
            -6.3020175695419312e-01 6.4636088907718658e-02</leafValues></_>
        <_>
          <internalNodes>
            0 -1 325 -7.2648242115974426e-02</internalNodes>
          <leafValues>
            1.7475472390651703e-01 -2.4415421485900879e-01</leafValues></_>
        <_>
          <internalNodes>
            0 -1 181 -6.4030708745121956e-03</internalNodes>
          <leafValues>
            4.0894132852554321e-01 -1.0249287635087967e-01</leafValues></_></weakClassifiers></_>
    <!-- stage 14 -->
    <_>
      <maxWeakCount>35</maxWeakCount>
      <stageThreshold>-9.3178540468215942e-01</stageThreshold>
      <weakClassifiers>
        <_>
          <internalNodes>
            0 -1 118 1.1378437280654907e-02</internalNodes>
          <leafValues>
            -4.0509915351867676e-01 -2.0100502297282219e-02</leafValues></_>
        <_>
          <internalNodes>
            0 -1 102 -6.2779039144515991e-03</internalNodes>
          <leafValues>
            5.4487311840057373e-01 -7.0306546986103058e-02</leafValues></_>
        <_>
          <internalNodes>
            0 -1 175 1.8463637679815292e-02</internalNodes>
          <leafValues>
            3.5115841776132584e-02 -6.2998634576797485e-01</leafValues></_>
        <_>
          <internalNodes>
            0 -1 117 2.9017653316259384e-02</internalNodes>
          <leafValues>
            -3.6715861409902573e-02 6.6984057426452637e-01</leafValues></_>
        <_>
          <internalNodes>
            0 -1 115 5.8801092207431793e-02</internalNodes>
          <leafValues>
            2.1490298211574554e-02 -7.3464071750640869e-01</leafValues></_>
        <_>
          <internalNodes>
            0 -1 94 8.1277906894683838e-02</internalNodes>
          <leafValues>
            -8.9329043403267860e-03 7.8044247627258301e-01</leafValues></_>
        <_>
          <internalNodes>
            0 -1 171 1.0238539427518845e-01</internalNodes>
          <leafValues>
            1.0684388689696789e-02 -7.5422120094299316e-01</leafValues></_>
        <_>
          <internalNodes>
            0 -1 146 1.2554340064525604e-01</internalNodes>
          <leafValues>
            -1.1236676014959812e-02 7.7211827039718628e-01</leafValues></_>
        <_>
          <internalNodes>
            0 -1 146 1.1500423401594162e-01</internalNodes>
          <leafValues>
            1.8821394070982933e-02 -7.2480750083923340e-01</leafValues></_>
        <_>
          <internalNodes>
            0 -1 143 2.9777314513921738e-02</internalNodes>
          <leafValues>
            -1.0294985771179199e-01 4.1589444875717163e-01</leafValues></_>
        <_>
          <internalNodes>
            0 -1 338 -3.8489229977130890e-02</internalNodes>
          <leafValues>
            2.0672689378261566e-01 -1.8287903070449829e-01</leafValues></_>
        <_>
          <internalNodes>
            0 -1 14 1.7030030488967896e-02</internalNodes>
          <leafValues>
            3.7628944963216782e-02 -8.8209754228591919e-01</leafValues></_>
        <_>
          <internalNodes>
            0 -1 274 -1.9085714593529701e-02</internalNodes>
          <leafValues>
            -5.8286792039871216e-01 6.5411783754825592e-02</leafValues></_>
        <_>
          <internalNodes>
            0 -1 188 -6.2133381143212318e-03</internalNodes>
          <leafValues>
            3.8906401395797729e-01 -8.7624087929725647e-02</leafValues></_>
        <_>
          <internalNodes>
            0 -1 126 -3.3127799630165100e-02</internalNodes>
          <leafValues>
            3.5158428549766541e-01 -1.1181540787220001e-01</leafValues></_>
        <_>
          <internalNodes>
            0 -1 193 -5.8559136232361197e-04</internalNodes>
          <leafValues>
            2.3225486278533936e-01 -1.9425943493843079e-01</leafValues></_>
        <_>
          <internalNodes>
            0 -1 3 1.0607784613966942e-02</internalNodes>
          <leafValues>
            5.3564775735139847e-02 -5.7587045431137085e-01</leafValues></_>
        <_>
          <internalNodes>
            0 -1 155 -1.0393514484167099e-01</internalNodes>
          <leafValues>
            4.3033216148614883e-02 -9.6108222007751465e-01</leafValues></_>
        <_>
          <internalNodes>
            0 -1 182 5.5559426546096802e-03</internalNodes>
          <leafValues>
            3.4652132540941238e-02 -9.6000349521636963e-01</leafValues></_>
        <_>
          <internalNodes>
            0 -1 9 -1.2407988309860229e-02</internalNodes>
          <leafValues>
            4.9291783571243286e-01 -8.2765109837055206e-02</leafValues></_>
        <_>
          <internalNodes>
            0 -1 141 -5.6058406829833984e-02</internalNodes>
          <leafValues>
            -4.0889617800712585e-01 9.5086358487606049e-02</leafValues></_>
        <_>
          <internalNodes>
            0 -1 280 -3.0766308307647705e-01</internalNodes>
          <leafValues>
            3.8077667355537415e-01 -1.3188669085502625e-01</leafValues></_>
        <_>
          <internalNodes>
            0 -1 332 1.7041813582181931e-02</internalNodes>
          <leafValues>
            -1.7333924770355225e-01 2.7675935626029968e-01</leafValues></_>
        <_>
          <internalNodes>
            0 -1 358 7.8084031119942665e-03</internalNodes>
          <leafValues>
            5.3202807903289795e-02 -7.7858251333236694e-01</leafValues></_>
        <_>
          <internalNodes>
            0 -1 103 -2.4031388759613037e-01</internalNodes>
          <leafValues>
            5.2608895301818848e-01 -8.2851842045783997e-02</leafValues></_>
        <_>
          <internalNodes>
            0 -1 205 -6.6237506689503789e-04</internalNodes>
          <leafValues>
            3.6567190289497375e-01 -1.0769120603799820e-01</leafValues></_>
        <_>
          <internalNodes>
            0 -1 85 1.3253502547740936e-02</internalNodes>
          <leafValues>
            -6.7040055990219116e-02 4.8944863677024841e-01</leafValues></_>
        <_>
          <internalNodes>
            0 -1 23 1.0770663619041443e-02</internalNodes>
          <leafValues>
            -7.2191029787063599e-02 4.6646597981452942e-01</leafValues></_>
        <_>
          <internalNodes>
            0 -1 248 4.1921006049960852e-04</internalNodes>
          <leafValues>
            -1.2415350228548050e-01 2.6721802353858948e-01</leafValues></_>
        <_>
          <internalNodes>
            0 -1 226 9.1108540073037148e-04</internalNodes>
          <leafValues>
            -1.8022640049457550e-01 1.9464369118213654e-01</leafValues></_>
        <_>
          <internalNodes>
            0 -1 163 1.1632718145847321e-02</internalNodes>
          <leafValues>
            6.6536746919155121e-02 -6.2655425071716309e-01</leafValues></_>
        <_>
          <internalNodes>
            0 -1 41 5.7653023395687342e-04</internalNodes>
          <leafValues>
            1.0497854650020599e-01 -3.4220355749130249e-01</leafValues></_>
        <_>
          <internalNodes>
            0 -1 236 3.1492221169173717e-03</internalNodes>
          <leafValues>
            -8.2235909998416901e-02 5.0932931900024414e-01</leafValues></_>
        <_>
          <internalNodes>
            0 -1 28 2.0226670429110527e-02</internalNodes>
          <leafValues>
            -1.2767483294010162e-01 3.6740496754646301e-01</leafValues></_>
        <_>
          <internalNodes>
            0 -1 341 6.0988115146756172e-03</internalNodes>
          <leafValues>
            7.9294368624687195e-02 -5.4055684804916382e-01</leafValues></_></weakClassifiers></_>
    <!-- stage 15 -->
    <_>
      <maxWeakCount>24</maxWeakCount>
      <stageThreshold>-8.8274061679840088e-01</stageThreshold>
      <weakClassifiers>
        <_>
          <internalNodes>
            0 -1 140 -1.6761103179305792e-03</internalNodes>
          <leafValues>
            7.9710148274898529e-02 -3.6421051621437073e-01</leafValues></_>
        <_>
          <internalNodes>
            0 -1 208 -1.7737133428454399e-02</internalNodes>
          <leafValues>
            -1.2173505127429962e-01 3.8003888726234436e-01</leafValues></_>
        <_>
          <internalNodes>
            0 -1 250 -5.9912484139204025e-03</internalNodes>
          <leafValues>
            2.9512926936149597e-01 -1.3110795617103577e-01</leafValues></_>
        <_>
          <internalNodes>
            0 -1 68 3.0495179817080498e-03</internalNodes>
          <leafValues>
            -1.5721258521080017e-01 3.0956846475601196e-01</leafValues></_>
        <_>
          <internalNodes>
            0 -1 12 1.3780704699456692e-02</internalNodes>
          <leafValues>
            -1.7398351430892944e-01 2.2137507796287537e-01</leafValues></_>
        <_>
          <internalNodes>
            0 -1 371 -1.0819962248206139e-02</internalNodes>
          <leafValues>
            4.7061744332313538e-01 -7.1969114243984222e-02</leafValues></_>
        <_>
          <internalNodes>
            0 -1 239 -4.1964940726757050e-02</internalNodes>
          <leafValues>
            4.5439961552619934e-01 -1.1447013169527054e-01</leafValues></_>
        <_>
          <internalNodes>
            0 -1 245 -8.3831377560272813e-04</internalNodes>
          <leafValues>
            3.1762751936912537e-01 -1.4277225732803345e-01</leafValues></_>
        <_>
          <internalNodes>
            0 -1 278 3.0582807958126068e-03</internalNodes>
          <leafValues>
            6.4751692116260529e-02 -8.8905984163284302e-01</leafValues></_>
        <_>
          <internalNodes>
            0 -1 199 5.2058733999729156e-03</internalNodes>
          <leafValues>
            -1.3125970959663391e-01 4.1646254062652588e-01</leafValues></_>
        <_>
          <internalNodes>
            0 -1 241 9.4829732552170753e-03</internalNodes>
          <leafValues>
            4.3677538633346558e-02 -8.6783498525619507e-01</leafValues></_>
        <_>
          <internalNodes>
            0 -1 108 4.9045877531170845e-03</internalNodes>
          <leafValues>
            -1.4597813785076141e-01 3.3053982257843018e-01</leafValues></_>
        <_>
          <internalNodes>
            0 -1 204 -5.8941110037267208e-03</internalNodes>
          <leafValues>
            -9.6090686321258545e-01 6.4390145242214203e-02</leafValues></_>
        <_>
          <internalNodes>
            0 -1 33 -3.0303397215902805e-04</internalNodes>
          <leafValues>
            1.7324398458003998e-01 -2.2997778654098511e-01</leafValues></_>
        <_>
          <internalNodes>
            0 -1 113 3.2092928886413574e-03</internalNodes>
          <leafValues>
            8.4778457880020142e-02 -5.5394589900970459e-01</leafValues></_>
        <_>
          <internalNodes>
            0 -1 227 1.8319222144782543e-03</internalNodes>
          <leafValues>
            -1.6989913582801819e-01 2.6450693607330322e-01</leafValues></_>
        <_>
          <internalNodes>
            0 -1 244 5.6212842464447021e-03</internalNodes>
          <leafValues>
            6.6275238990783691e-02 -7.5896549224853516e-01</leafValues></_>
        <_>
          <internalNodes>
            0 -1 254 -4.5914051588624716e-04</internalNodes>
          <leafValues>
            1.9344530999660492e-01 -2.0796518027782440e-01</leafValues></_>
        <_>
          <internalNodes>
            0 -1 174 5.8075319975614548e-02</internalNodes>
          <leafValues>
            -1.1867710202932358e-01 3.5411351919174194e-01</leafValues></_>
        <_>
          <internalNodes>
            0 -1 89 6.5540126524865627e-03</internalNodes>
          <leafValues>
            -1.7999695241451263e-01 2.6222732663154602e-01</leafValues></_>
        <_>
          <internalNodes>
            0 -1 164 2.7707153931260109e-03</internalNodes>
          <leafValues>
            5.9198558330535889e-02 -8.5287511348724365e-01</leafValues></_>
        <_>
          <internalNodes>
            0 -1 4 2.5402796454727650e-03</internalNodes>
          <leafValues>
            -1.6042916476726532e-01 2.9315379261970520e-01</leafValues></_>
        <_>
          <internalNodes>
            0 -1 283 4.8475693911314011e-03</internalNodes>
          <leafValues>
            8.2620337605476379e-02 -5.0280010700225830e-01</leafValues></_>
        <_>
          <internalNodes>
            0 -1 359 -1.2109624221920967e-03</internalNodes>
          <leafValues>
            3.4604737162590027e-01 -1.4357593655586243e-01</leafValues></_></weakClassifiers></_>
    <!-- stage 16 -->
    <_>
      <maxWeakCount>28</maxWeakCount>
      <stageThreshold>-7.9518610239028931e-01</stageThreshold>
      <weakClassifiers>
        <_>
          <internalNodes>
            0 -1 196 -9.4244651496410370e-02</internalNodes>
          <leafValues>
            3.9240506291389465e-01 -2.7083334326744080e-01</leafValues></_>
        <_>
          <internalNodes>
            0 -1 0 1.5956123825162649e-03</internalNodes>
          <leafValues>
            5.6382551789283752e-02 -6.8526285886764526e-01</leafValues></_>
        <_>
          <internalNodes>
            0 -1 272 -6.1875488609075546e-03</internalNodes>
          <leafValues>
            3.1837448477745056e-01 -1.2404202669858932e-01</leafValues></_>
        <_>
          <internalNodes>
            0 -1 132 -9.9703241139650345e-03</internalNodes>
          <leafValues>
            3.4698790311813354e-01 -1.2069521844387054e-01</leafValues></_>
        <_>
          <internalNodes>
            0 -1 264 -2.6674736291170120e-03</internalNodes>
          <leafValues>
            -1.9204786419868469e-01 1.9104933738708496e-01</leafValues></_>
        <_>
          <internalNodes>
            0 -1 38 1.3264330103993416e-02</internalNodes>
          <leafValues>
            -8.5605151951313019e-02 4.6719864010810852e-01</leafValues></_>
        <_>
          <internalNodes>
            0 -1 124 -8.1493608653545380e-02</internalNodes>
          <leafValues>
            1.9955936074256897e-01 -1.8859727680683136e-01</leafValues></_>
        <_>
          <internalNodes>
            0 -1 109 -7.1577415801584721e-03</internalNodes>
          <leafValues>
            -6.7218732833862305e-01 7.8668043017387390e-02</leafValues></_>
        <_>
          <internalNodes>
            0 -1 210 2.3489773739129305e-03</internalNodes>
          <leafValues>
            -6.7078828811645508e-02 5.8126735687255859e-01</leafValues></_>
        <_>
          <internalNodes>
            0 -1 43 -2.5382190942764282e-03</internalNodes>
          <leafValues>
            -1. 2.9137250036001205e-02</leafValues></_>
        <_>
          <internalNodes>
            0 -1 74 8.5386158898472786e-03</internalNodes>
          <leafValues>
            -1.9924080371856689e-01 1.8752017617225647e-01</leafValues></_>
        <_>
          <internalNodes>
            0 -1 27 -9.5766440033912659e-02</internalNodes>
          <leafValues>
            -8.3802002668380737e-01 6.7860841751098633e-02</leafValues></_>
        <_>
          <internalNodes>
            0 -1 308 -5.4220645688474178e-04</internalNodes>
          <leafValues>
            -3.4331056475639343e-01 9.9958039820194244e-02</leafValues></_>
        <_>
          <internalNodes>
            0 -1 170 -2.0814269373659045e-04</internalNodes>
          <leafValues>
            -3.3648568391799927e-01 1.2233750522136688e-01</leafValues></_>
        <_>
          <internalNodes>
            0 -1 58 4.7532650642096996e-03</internalNodes>
          <leafValues>
            4.2013335973024368e-02 -8.9231270551681519e-01</leafValues></_>
        <_>
          <internalNodes>
            0 -1 36 -3.0676063615828753e-03</internalNodes>
          <leafValues>
            4.1335585713386536e-01 -1.0822326689958572e-01</leafValues></_>
        <_>
          <internalNodes>
            0 -1 232 -8.2247555255889893e-03</internalNodes>
          <leafValues>
            5.4075366258621216e-01 -5.8169364929199219e-02</leafValues></_>
        <_>
          <internalNodes>
            0 -1 238 -2.0546824671328068e-03</internalNodes>
          <leafValues>
            -7.8180080652236938e-01 4.6817749738693237e-02</leafValues></_>
        <_>
          <internalNodes>
            0 -1 42 1.3429435202851892e-03</internalNodes>
          <leafValues>
            5.5742926895618439e-02 -5.5887520313262939e-01</leafValues></_>
        <_>
          <internalNodes>
            0 -1 315 -9.6224024891853333e-03</internalNodes>
          <leafValues>
            3.1682795286178589e-01 -1.1616238951683044e-01</leafValues></_>
        <_>
          <internalNodes>
            0 -1 251 -3.5320441238582134e-03</internalNodes>
          <leafValues>
            4.0530014038085938e-01 -9.4227090477943420e-02</leafValues></_>
        <_>
          <internalNodes>
            0 -1 16 2.0124493166804314e-03</internalNodes>
          <leafValues>
            -1.3671016693115234e-01 2.5111049413681030e-01</leafValues></_>
        <_>
          <internalNodes>
            0 -1 26 -2.1311420202255249e-01</internalNodes>
          <leafValues>
            -5.1178377866744995e-01 6.3663765788078308e-02</leafValues></_>
        <_>
          <internalNodes>
            0 -1 369 4.9654352478682995e-03</internalNodes>
          <leafValues>
            7.8403457999229431e-02 -4.4830581545829773e-01</leafValues></_>
        <_>
          <internalNodes>
            0 -1 233 -7.9293824732303619e-02</internalNodes>
          <leafValues>
            2.6930141448974609e-01 -1.6271807253360748e-01</leafValues></_>
        <_>
          <internalNodes>
            0 -1 235 1.7090395092964172e-02</internalNodes>
          <leafValues>
            -9.4745546579360962e-02 4.9055504798889160e-01</leafValues></_>
        <_>
          <internalNodes>
            0 -1 267 -2.8875735588371754e-03</internalNodes>
          <leafValues>
            2.7370721101760864e-01 -1.5360008180141449e-01</leafValues></_>
        <_>
          <internalNodes>
            0 -1 340 -1.1672588996589184e-02</internalNodes>
          <leafValues>
            -1.0856010019779205e-01 4.0681946277618408e-01</leafValues></_></weakClassifiers></_>
    <!-- stage 17 -->
    <_>
      <maxWeakCount>34</maxWeakCount>
      <stageThreshold>-8.3624005317687988e-01</stageThreshold>
      <weakClassifiers>
        <_>
          <internalNodes>
            0 -1 220 -3.8178861141204834e-02</internalNodes>
          <leafValues>
            1.4662756584584713e-02 -3.8048779964447021e-01</leafValues></_>
        <_>
          <internalNodes>
            0 -1 106 1.4460154809057713e-02</internalNodes>
          <leafValues>
            -1.2868256866931915e-01 3.1335291266441345e-01</leafValues></_>
        <_>
          <internalNodes>
            0 -1 191 2.1461384370923042e-02</internalNodes>
          <leafValues>
            5.7039026170969009e-02 -5.6717258691787720e-01</leafValues></_>
        <_>
          <internalNodes>
            0 -1 190 1.0728167369961739e-02</internalNodes>
          <leafValues>
            -3.7748333066701889e-02 7.2469204664230347e-01</leafValues></_>
        <_>
          <internalNodes>
            0 -1 191 1.7969144508242607e-02</internalNodes>
          <leafValues>
            9.7978604026138783e-04 -6.3064420223236084e-01</leafValues></_>
        <_>
          <internalNodes>
            0 -1 17 2.4327882565557957e-03</internalNodes>
          <leafValues>
            -1.5383905172348022e-01 2.3064428567886353e-01</leafValues></_>
        <_>
          <internalNodes>
            0 -1 323 -3.8388501852750778e-03</internalNodes>
          <leafValues>
            3.7962102890014648e-01 -1.0237480700016022e-01</leafValues></_>
        <_>
          <internalNodes>
            0 -1 261 -2.1276338025927544e-02</internalNodes>
          <leafValues>
            4.6438392996788025e-01 -8.6544252932071686e-02</leafValues></_>
        <_>
          <internalNodes>
            0 -1 310 -2.6157613843679428e-02</internalNodes>
          <leafValues>
            -9.2795217037200928e-01 3.7681501358747482e-02</leafValues></_>
        <_>
          <internalNodes>
            0 -1 247 2.3165378719568253e-02</internalNodes>
          <leafValues>
            6.0656260699033737e-02 -5.8110707998275757e-01</leafValues></_>
        <_>
          <internalNodes>
            0 -1 304 8.6180522339418530e-04</internalNodes>
          <leafValues>
            -9.1475762426853180e-02 3.7031221389770508e-01</leafValues></_>
        <_>
          <internalNodes>
            0 -1 301 3.6297161132097244e-03</internalNodes>
          <leafValues>
            -1.3674508035182953e-01 2.6366549730300903e-01</leafValues></_>
        <_>
          <internalNodes>
            0 -1 130 9.8623931407928467e-03</internalNodes>
          <leafValues>
            -1.5838104486465454e-01 2.3466233909130096e-01</leafValues></_>
        <_>
          <internalNodes>
            0 -1 52 1.2154287658631802e-02</internalNodes>
          <leafValues>
            6.5388359129428864e-02 -6.5586161613464355e-01</leafValues></_>
        <_>
          <internalNodes>
            0 -1 255 4.5679048635065556e-03</internalNodes>
          <leafValues>
            7.9004414379596710e-02 -4.3359923362731934e-01</leafValues></_>
        <_>
          <internalNodes>
            0 -1 276 5.7763859629631042e-02</internalNodes>
          <leafValues>
            -1.0219748318195343e-01 4.8046648502349854e-01</leafValues></_>
        <_>
          <internalNodes>
            0 -1 91 -1.5713450312614441e-01</internalNodes>
          <leafValues>
            8.2490050792694092e-01 -6.6320501267910004e-02</leafValues></_>
        <_>
          <internalNodes>
            0 -1 64 -7.0536107523366809e-04</internalNodes>
          <leafValues>
            3.2372900843620300e-01 -9.7993910312652588e-02</leafValues></_>
        <_>
          <internalNodes>
            0 -1 320 -2.2236523218452930e-03</internalNodes>
          <leafValues>
            2.2037796676158905e-01 -1.7585511505603790e-01</leafValues></_>
        <_>
          <internalNodes>
            0 -1 98 -1.2386363931000233e-02</internalNodes>
          <leafValues>
            -4.0035524964332581e-01 9.2927448451519012e-02</leafValues></_>
        <_>
          <internalNodes>
            0 -1 367 -1.0732655646279454e-03</internalNodes>
          <leafValues>
            2.7946543693542480e-01 -1.4567057788372040e-01</leafValues></_>
        <_>
          <internalNodes>
            0 -1 200 9.2018842697143555e-03</internalNodes>
          <leafValues>
            8.9361786842346191e-02 -5.4313063621520996e-01</leafValues></_>
        <_>
          <internalNodes>
            0 -1 388 1.2556628789752722e-03</internalNodes>
          <leafValues>
            5.7143550366163254e-02 -5.5778759717941284e-01</leafValues></_>
        <_>
          <internalNodes>
            0 -1 317 5.2480110898613930e-03</internalNodes>
          <leafValues>
            -8.9590288698673248e-02 4.4917261600494385e-01</leafValues></_>
        <_>
          <internalNodes>
            0 -1 133 -2.3336100857704878e-03</internalNodes>
          <leafValues>
            3.8007608056068420e-01 -9.9358879029750824e-02</leafValues></_>
        <_>
          <internalNodes>
            0 -1 224 3.5038419067859650e-02</internalNodes>
          <leafValues>
            -9.6165798604488373e-02 3.8013732433319092e-01</leafValues></_>
        <_>
          <internalNodes>
            0 -1 66 1.3593758922070265e-03</internalNodes>
          <leafValues>
            -8.5847117006778717e-02 4.4926545023918152e-01</leafValues></_>
        <_>
          <internalNodes>
            0 -1 172 -4.9552381038665771e-01</internalNodes>
          <leafValues>
            7.5152665376663208e-01 -5.2029915153980255e-02</leafValues></_>
        <_>
          <internalNodes>
            0 -1 197 -6.8575248122215271e-02</internalNodes>
          <leafValues>
            3.1240981817245483e-01 -1.1339634656906128e-01</leafValues></_>
        <_>
          <internalNodes>
            0 -1 165 -4.4319862499833107e-03</internalNodes>
          <leafValues>
            3.1042540073394775e-01 -1.2056304514408112e-01</leafValues></_>
        <_>
          <internalNodes>
            0 -1 186 -6.4480647444725037e-02</internalNodes>
          <leafValues>
            3.9903414249420166e-01 -1.1524150520563126e-01</leafValues></_>
        <_>
          <internalNodes>
            0 -1 152 2.4538692086935043e-03</internalNodes>
          <leafValues>
            7.2299949824810028e-02 -6.6415679454803467e-01</leafValues></_>
        <_>
          <internalNodes>
            0 -1 218 1.8893140368163586e-03</internalNodes>
          <leafValues>
            1.0499604046344757e-01 -3.4935298562049866e-01</leafValues></_>
        <_>
          <internalNodes>
            0 -1 158 5.8690607547760010e-03</internalNodes>
          <leafValues>
            -1.0828094184398651e-01 3.4979680180549622e-01</leafValues></_></weakClassifiers></_>
    <!-- stage 18 -->
    <_>
      <maxWeakCount>27</maxWeakCount>
      <stageThreshold>-8.6299508810043335e-01</stageThreshold>
      <weakClassifiers>
        <_>
          <internalNodes>
            0 -1 357 -2.1083450410515070e-03</internalNodes>
          <leafValues>
            6.5359480679035187e-02 -3.8426965475082397e-01</leafValues></_>
        <_>
          <internalNodes>
            0 -1 321 1.2809449806809425e-02</internalNodes>
          <leafValues>
            -9.3343004584312439e-02 4.2412209510803223e-01</leafValues></_>
        <_>
          <internalNodes>
            0 -1 339 7.0919701829552650e-03</internalNodes>
          <leafValues>
            5.9759777039289474e-02 -5.4282176494598389e-01</leafValues></_>
        <_>
          <internalNodes>
            0 -1 350 -1.2959131272509694e-03</internalNodes>
          <leafValues>
            2.1309998631477356e-01 -1.9077493250370026e-01</leafValues></_>
        <_>
          <internalNodes>
            0 -1 138 -9.6380487084388733e-03</internalNodes>
          <leafValues>
            3.0371439456939697e-01 -1.4032931625843048e-01</leafValues></_>
        <_>
          <internalNodes>
            0 -1 99 1.0666121961548924e-03</internalNodes>
          <leafValues>
            -2.6137486100196838e-01 1.4653503894805908e-01</leafValues></_>
        <_>
          <internalNodes>
            0 -1 334 -5.4949424229562283e-03</internalNodes>
          <leafValues>
            -7.8657202422618866e-02 4.0543106198310852e-01</leafValues></_>
        <_>
          <internalNodes>
            0 -1 22 -1.7952313646674156e-03</internalNodes>
          <leafValues>
            3.4898290038108826e-01 -1.3137327134609222e-01</leafValues></_>
        <_>
          <internalNodes>
            0 -1 219 2.4026457220315933e-02</internalNodes>
          <leafValues>
            -1.1642970889806747e-01 3.0697843432426453e-01</leafValues></_>
        <_>
          <internalNodes>
            0 -1 368 6.0977847315371037e-03</internalNodes>
          <leafValues>
            -3.0678337439894676e-02 8.8383692502975464e-01</leafValues></_>
        <_>
          <internalNodes>
            0 -1 166 8.8161975145339966e-03</internalNodes>
          <leafValues>
            -1.1402876675128937e-01 3.4867319464683533e-01</leafValues></_>
        <_>
          <internalNodes>
            0 -1 61 -1.2248435057699680e-02</internalNodes>
          <leafValues>
            1.1165646463632584e-01 -3.3151343464851379e-01</leafValues></_>
        <_>
          <internalNodes>
            0 -1 167 -3.6768419668078423e-03</internalNodes>
          <leafValues>
            2.6792907714843750e-01 -1.2775439023971558e-01</leafValues></_>
        <_>
          <internalNodes>
            0 -1 107 -1.3233393430709839e-02</internalNodes>
          <leafValues>
            -1.1965132504701614e-01 3.5929194092750549e-01</leafValues></_>
        <_>
          <internalNodes>
            0 -1 30 1.0174781084060669e-02</internalNodes>
          <leafValues>
            -1.6582055389881134e-01 2.1883702278137207e-01</leafValues></_>
        <_>
          <internalNodes>
            0 -1 108 4.9729356542229652e-03</internalNodes>
          <leafValues>
            -1.2386932969093323e-01 3.5317170619964600e-01</leafValues></_>
        <_>
          <internalNodes>
            0 -1 385 -8.9872702956199646e-03</internalNodes>
          <leafValues>
            4.1321557760238647e-01 -9.4460502266883850e-02</leafValues></_>
        <_>
          <internalNodes>
            0 -1 370 -2.5699487887322903e-03</internalNodes>
          <leafValues>
            -4.1953200101852417e-01 1.1265495419502258e-01</leafValues></_>
        <_>
          <internalNodes>
            0 -1 178 -1.0650511831045151e-03</internalNodes>
          <leafValues>
            3.0414995551109314e-01 -1.3808076083660126e-01</leafValues></_>
        <_>
          <internalNodes>
            0 -1 302 -9.3474194407463074e-02</internalNodes>
          <leafValues>
            3.5825598239898682e-01 -1.0411554574966431e-01</leafValues></_>
        <_>
          <internalNodes>
            0 -1 143 7.2820305824279785e-02</internalNodes>
          <leafValues>
            -5.1072418689727783e-02 8.7188690900802612e-01</leafValues></_>
        <_>
          <internalNodes>
            0 -1 151 -1.9689694046974182e-02</internalNodes>
          <leafValues>
            6.5485703945159912e-01 -6.3891597092151642e-02</leafValues></_>
        <_>
          <internalNodes>
            0 -1 195 5.5055156350135803e-02</internalNodes>
          <leafValues>
            7.0615030825138092e-02 -6.9666302204132080e-01</leafValues></_>
        <_>
          <internalNodes>
            0 -1 203 9.7256964072585106e-03</internalNodes>
          <leafValues>
            -1.1234539747238159e-01 4.0443828701972961e-01</leafValues></_>
        <_>
          <internalNodes>
            0 -1 361 -2.1141075994819403e-03</internalNodes>
          <leafValues>
            1.9592121243476868e-01 -2.1745130419731140e-01</leafValues></_>
        <_>
          <internalNodes>
            0 -1 337 9.1148931533098221e-03</internalNodes>
          <leafValues>
            -1.2357095628976822e-01 4.5278665423393250e-01</leafValues></_>
        <_>
          <internalNodes>
            0 -1 189 3.8514353946084157e-05</internalNodes>
          <leafValues>
            -1.8177887797355652e-01 2.2429500520229340e-01</leafValues></_></weakClassifiers></_>
    <!-- stage 19 -->
    <_>
      <maxWeakCount>27</maxWeakCount>
      <stageThreshold>-9.5215868949890137e-01</stageThreshold>
      <weakClassifiers>
        <_>
          <internalNodes>
            0 -1 112 -1.8935481086373329e-02</internalNodes>
          <leafValues>
            7.0212763547897339e-01 -2.6136362552642822e-01</leafValues></_>
        <_>
          <internalNodes>
            0 -1 365 -6.6717417212203145e-04</internalNodes>
          <leafValues>
            4.3617159128189087e-01 -1.5617436170578003e-01</leafValues></_>
        <_>
          <internalNodes>
            0 -1 207 1.1430780868977308e-03</internalNodes>
          <leafValues>
            -8.6728788912296295e-02 5.1501536369323730e-01</leafValues></_>
        <_>
          <internalNodes>
            0 -1 63 -8.3410128718242049e-04</internalNodes>
          <leafValues>
            4.1230785846710205e-01 -8.7720446288585663e-02</leafValues></_>
        <_>
          <internalNodes>
            0 -1 289 -2.7396657969802618e-03</internalNodes>
          <leafValues>
            5.0697082281112671e-01 -8.9041955769062042e-02</leafValues></_>
        <_>
          <internalNodes>
            0 -1 374 -1.6162026673555374e-02</internalNodes>
          <leafValues>
            -2.4363404512405396e-01 1.8504753708839417e-01</leafValues></_>
        <_>
          <internalNodes>
            0 -1 65 1.0598061606287956e-02</internalNodes>
          <leafValues>
            -6.5549246966838837e-02 5.5130946636199951e-01</leafValues></_>
        <_>
          <internalNodes>
            0 -1 84 -3.1380595173686743e-03</internalNodes>
          <leafValues>
            7.0383745431900024e-01 -5.7101592421531677e-02</leafValues></_>
        <_>
          <internalNodes>
            0 -1 269 1.0523235425353050e-02</internalNodes>
          <leafValues>
            -2.8606643900275230e-02 9.4571924209594727e-01</leafValues></_>
        <_>
          <internalNodes>
            0 -1 125 1.5031074173748493e-02</internalNodes>
          <leafValues>
            -5.5133387446403503e-02 5.7804453372955322e-01</leafValues></_>
        <_>
          <internalNodes>
            0 -1 303 1.2501815799623728e-03</internalNodes>
          <leafValues>
            -7.5611777603626251e-02 4.9354696273803711e-01</leafValues></_>
        <_>
          <internalNodes>
            0 -1 246 -1.5744001138955355e-03</internalNodes>
          <leafValues>
            -2.4969349801540375e-01 1.6854141652584076e-01</leafValues></_>
        <_>
          <internalNodes>
            0 -1 156 -1.4843214303255081e-02</internalNodes>
          <leafValues>
            2.7946791052818298e-01 -2.0532323420047760e-01</leafValues></_>
        <_>
          <internalNodes>
            0 -1 160 1.9227568060159683e-02</internalNodes>
          <leafValues>
            1.2662278115749359e-01 -5.3510540723800659e-01</leafValues></_>
        <_>
          <internalNodes>
            0 -1 59 -1.4144118875265121e-02</internalNodes>
          <leafValues>
            -3.4925529360771179e-01 1.3243718445301056e-01</leafValues></_>
        <_>
          <internalNodes>
            0 -1 29 1.5017616096884012e-03</internalNodes>
          <leafValues>
            -2.2016653418540955e-01 2.2523334622383118e-01</leafValues></_>
        <_>
          <internalNodes>
            0 -1 55 -5.5964582134038210e-04</internalNodes>
          <leafValues>
            3.4412497282028198e-01 -1.3523176312446594e-01</leafValues></_>
        <_>
          <internalNodes>
            0 -1 281 -3.9534483221359551e-04</internalNodes>
          <leafValues>
            3.3561861515045166e-01 -1.1968278139829636e-01</leafValues></_>
        <_>
          <internalNodes>
            0 -1 275 -1.0932036675512791e-03</internalNodes>
          <leafValues>
            3.2742288708686829e-01 -1.1689084023237228e-01</leafValues></_>
        <_>
          <internalNodes>
            0 -1 10 6.1277588829398155e-03</internalNodes>
          <leafValues>
            7.1396850049495697e-02 -5.9629219770431519e-01</leafValues></_>
        <_>
          <internalNodes>
            0 -1 97 -7.6156301656737924e-04</internalNodes>
          <leafValues>
            2.7825263142585754e-01 -1.5253290534019470e-01</leafValues></_>
        <_>
          <internalNodes>
            0 -1 291 -1.6305672470480204e-03</internalNodes>
          <leafValues>
            -5.5894768238067627e-01 7.9967364668846130e-02</leafValues></_>
        <_>
          <internalNodes>
            0 -1 318 -5.9278621338307858e-03</internalNodes>
          <leafValues>
            4.8085737228393555e-01 -9.9498905241489410e-02</leafValues></_>
        <_>
          <internalNodes>
            0 -1 279 4.8750396817922592e-03</internalNodes>
          <leafValues>
            -1.0639478266239166e-01 4.2372313141822815e-01</leafValues></_>
        <_>
          <internalNodes>
            0 -1 136 -9.4909422099590302e-02</internalNodes>
          <leafValues>
            6.7774093151092529e-01 -7.0848263800144196e-02</leafValues></_>
        <_>
          <internalNodes>
            0 -1 364 9.3827344244346023e-04</internalNodes>
          <leafValues>
            1.1763942241668701e-01 -4.1303288936614990e-01</leafValues></_>
        <_>
          <internalNodes>
            0 -1 286 3.3794259652495384e-03</internalNodes>
          <leafValues>
            -8.9609287679195404e-02 5.9063071012496948e-01</leafValues></_></weakClassifiers></_></stages>
  <features>
    <_>
      <rects>
        <_>
          0 0 2 1 -1.</_>
        <_>
          1 0 1 1 2.</_></rects>
      <tilted>0</tilted></_>
    <_>
      <rects>
        <_>
          0 0 1 2 -1.</_>
        <_>
          0 1 1 1 2.</_></rects>
      <tilted>0</tilted></_>
    <_>
      <rects>
        <_>
          0 0 2 2 -1.</_>
        <_>
          0 0 1 1 2.</_>
        <_>
          1 1 1 1 2.</_></rects>
      <tilted>0</tilted></_>
    <_>
      <rects>
        <_>
          0 0 1 8 -1.</_>
        <_>
          0 4 1 4 2.</_></rects>
      <tilted>0</tilted></_>
    <_>
      <rects>
        <_>
          0 0 4 3 -1.</_>
        <_>
          2 0 2 3 2.</_></rects>
      <tilted>0</tilted></_>
    <_>
      <rects>
        <_>
          0 0 4 18 -1.</_>
        <_>
          0 0 2 9 2.</_>
        <_>
          2 9 2 9 2.</_></rects>
      <tilted>0</tilted></_>
    <_>
      <rects>
        <_>
          0 0 4 11 -1.</_>
        <_>
          2 0 2 11 2.</_></rects>
      <tilted>0</tilted></_>
    <_>
      <rects>
        <_>
          0 0 4 13 -1.</_>
        <_>
          2 0 2 13 2.</_></rects>
      <tilted>0</tilted></_>
    <_>
      <rects>
        <_>
          0 0 6 6 -1.</_>
        <_>
          0 0 3 3 2.</_>
        <_>
          3 3 3 3 2.</_></rects>
      <tilted>0</tilted></_>
    <_>
      <rects>
        <_>
          0 0 6 8 -1.</_>
        <_>
          0 0 3 4 2.</_>
        <_>
          3 4 3 4 2.</_></rects>
      <tilted>0</tilted></_>
    <_>
      <rects>
        <_>
          0 1 1 6 -1.</_>
        <_>
          0 4 1 3 2.</_></rects>
      <tilted>0</tilted></_>
    <_>
      <rects>
        <_>
          0 1 6 2 -1.</_>
        <_>
          0 1 3 1 2.</_>
        <_>
          3 2 3 1 2.</_></rects>
      <tilted>0</tilted></_>
    <_>
      <rects>
        <_>
          0 1 8 8 -1.</_>
        <_>
          0 1 4 4 2.</_>
        <_>
          4 5 4 4 2.</_></rects>
      <tilted>0</tilted></_>
    <_>
      <rects>
        <_>
          0 1 8 6 -1.</_>
        <_>
          0 4 8 3 2.</_></rects>
      <tilted>0</tilted></_>
    <_>
      <rects>
        <_>
          0 1 9 2 -1.</_>
        <_>
          0 2 9 1 2.</_></rects>
      <tilted>0</tilted></_>
    <_>
      <rects>
        <_>
          0 2 12 1 -1.</_>
        <_>
          6 2 6 1 2.</_></rects>
      <tilted>0</tilted></_>
    <_>
      <rects>
        <_>
          0 3 2 8 -1.</_>
        <_>
          0 3 1 4 2.</_>
        <_>
          1 7 1 4 2.</_></rects>
      <tilted>0</tilted></_>
    <_>
      <rects>
        <_>
          0 3 8 2 -1.</_>
        <_>
          0 4 8 1 2.</_></rects>
      <tilted>0</tilted></_>
    <_>
      <rects>
        <_>
          0 3 20 2 -1.</_>
        <_>
          0 3 10 1 2.</_>
        <_>
          10 4 10 1 2.</_></rects>
      <tilted>0</tilted></_>
    <_>
      <rects>
        <_>
          0 3 15 2 -1.</_>
        <_>
          0 4 15 1 2.</_></rects>
      <tilted>0</tilted></_>
    <_>
      <rects>
        <_>
          0 4 1 2 -1.</_>
        <_>
          0 5 1 1 2.</_></rects>
      <tilted>0</tilted></_>
    <_>
      <rects>
        <_>
          0 4 6 5 -1.</_>
        <_>
          3 4 3 5 2.</_></rects>
      <tilted>0</tilted></_>
    <_>
      <rects>
        <_>
          0 5 14 2 -1.</_>
        <_>
          0 6 14 1 2.</_></rects>
      <tilted>0</tilted></_>
    <_>
      <rects>
        <_>
          0 6 2 6 -1.</_>
        <_>
          1 6 1 6 2.</_></rects>
      <tilted>0</tilted></_>
    <_>
      <rects>
        <_>
          0 6 2 10 -1.</_>
        <_>
          1 6 1 10 2.</_></rects>
      <tilted>0</tilted></_>
    <_>
      <rects>
        <_>
          0 7 8 2 -1.</_>
        <_>
          4 7 4 2 2.</_></rects>
      <tilted>0</tilted></_>
    <_>
      <rects>
        <_>
          0 7 12 4 -1.</_>
        <_>
          4 7 4 4 2.</_></rects>
      <tilted>0</tilted></_>
    <_>
      <rects>
        <_>
          0 7 16 3 -1.</_>
        <_>
          8 7 8 3 2.</_></rects>
      <tilted>0</tilted></_>
    <_>
      <rects>
        <_>
          0 8 14 1 -1.</_>
        <_>
          7 8 7 1 2.</_></rects>
      <tilted>0</tilted></_>
    <_>
      <rects>
        <_>
          0 8 12 2 -1.</_>
        <_>
          0 9 12 1 2.</_></rects>
      <tilted>0</tilted></_>
    <_>
      <rects>
        <_>
          0 9 4 4 -1.</_>
        <_>
          2 9 2 4 2.</_></rects>
      <tilted>0</tilted></_>
    <_>
      <rects>
        <_>
          0 9 6 9 -1.</_>
        <_>
          3 9 3 9 2.</_></rects>
      <tilted>0</tilted></_>
    <_>
      <rects>
        <_>
          0 11 2 6 -1.</_>
        <_>
          1 11 1 6 2.</_></rects>
      <tilted>0</tilted></_>
    <_>
      <rects>
        <_>
          0 11 5 4 -1.</_>
        <_>
          0 13 5 2 2.</_></rects>
      <tilted>0</tilted></_>
    <_>
      <rects>
        <_>
          0 12 4 8 -1.</_>
        <_>
          0 12 2 4 2.</_>
        <_>
          2 16 2 4 2.</_></rects>
      <tilted>0</tilted></_>
    <_>
      <rects>
        <_>
          0 13 9 4 -1.</_>
        <_>
          0 15 9 2 2.</_></rects>
      <tilted>0</tilted></_>
    <_>
      <rects>
        <_>
          0 14 3 2 -1.</_>
        <_>
          0 15 3 1 2.</_></rects>
      <tilted>0</tilted></_>
    <_>
      <rects>
        <_>
          0 15 4 4 -1.</_>
        <_>
          0 17 4 2 2.</_></rects>
      <tilted>0</tilted></_>
    <_>
      <rects>
        <_>
          0 17 18 2 -1.</_>
        <_>
          0 17 9 1 2.</_>
        <_>
          9 18 9 1 2.</_></rects>
      <tilted>0</tilted></_>
    <_>
      <rects>
        <_>
          0 17 15 2 -1.</_>
        <_>
          0 18 15 1 2.</_></rects>
      <tilted>0</tilted></_>
    <_>
      <rects>
        <_>
          0 18 18 2 -1.</_>
        <_>
          0 19 18 1 2.</_></rects>
      <tilted>0</tilted></_>
    <_>
      <rects>
        <_>
          0 19 2 1 -1.</_>
        <_>
          1 19 1 1 2.</_></rects>
      <tilted>0</tilted></_>
    <_>
      <rects>
        <_>
          1 0 2 1 -1.</_>
        <_>
          2 0 1 1 2.</_></rects>
      <tilted>0</tilted></_>
    <_>
      <rects>
        <_>
          1 0 2 2 -1.</_>
        <_>
          1 0 1 1 2.</_>
        <_>
          2 1 1 1 2.</_></rects>
      <tilted>0</tilted></_>
    <_>
      <rects>
        <_>
          1 0 4 6 -1.</_>
        <_>
          3 0 2 6 2.</_></rects>
      <tilted>0</tilted></_>
    <_>
      <rects>
        <_>
          1 0 6 4 -1.</_>
        <_>
          1 0 3 2 2.</_>
        <_>
          4 2 3 2 2.</_></rects>
      <tilted>0</tilted></_>
    <_>
      <rects>
        <_>
          1 1 4 2 -1.</_>
        <_>
          1 1 2 1 2.</_>
        <_>
          3 2 2 1 2.</_></rects>
      <tilted>0</tilted></_>
    <_>
      <rects>
        <_>
          1 1 8 2 -1.</_>
        <_>
          1 1 4 1 2.</_>
        <_>
          5 2 4 1 2.</_></rects>
      <tilted>0</tilted></_>
    <_>
      <rects>
        <_>
          1 1 6 6 -1.</_>
        <_>
          1 4 6 3 2.</_></rects>
      <tilted>0</tilted></_>
    <_>
      <rects>
        <_>
          1 4 10 2 -1.</_>
        <_>
          1 5 10 1 2.</_></rects>
      <tilted>0</tilted></_>
    <_>
      <rects>
        <_>
          1 5 2 12 -1.</_>
        <_>
          1 9 2 4 2.</_></rects>
      <tilted>0</tilted></_>
    <_>
      <rects>
        <_>
          1 5 4 10 -1.</_>
        <_>
          1 5 2 5 2.</_>
        <_>
          3 10 2 5 2.</_></rects>
      <tilted>0</tilted></_>
    <_>
      <rects>
        <_>
          1 5 16 2 -1.</_>
        <_>
          1 5 8 1 2.</_>
        <_>
          9 6 8 1 2.</_></rects>
      <tilted>0</tilted></_>
    <_>
      <rects>
        <_>
          1 5 18 2 -1.</_>
        <_>
          1 5 9 1 2.</_>
        <_>
          10 6 9 1 2.</_></rects>
      <tilted>0</tilted></_>
    <_>
      <rects>
        <_>
          1 6 2 8 -1.</_>
        <_>
          1 6 1 4 2.</_>
        <_>
          2 10 1 4 2.</_></rects>
      <tilted>0</tilted></_>
    <_>
      <rects>
        <_>
          1 6 2 8 -1.</_>
        <_>
          2 6 1 8 2.</_></rects>
      <tilted>0</tilted></_>
    <_>
      <rects>
        <_>
          1 6 6 2 -1.</_>
        <_>
          1 6 3 1 2.</_>
        <_>
          4 7 3 1 2.</_></rects>
      <tilted>0</tilted></_>
    <_>
      <rects>
        <_>
          1 6 16 10 -1.</_>
        <_>
          9 6 8 10 2.</_></rects>
      <tilted>0</tilted></_>
    <_>
      <rects>
        <_>
          1 7 4 2 -1.</_>
        <_>
          1 7 2 1 2.</_>
        <_>
          3 8 2 1 2.</_></rects>
      <tilted>0</tilted></_>
    <_>
      <rects>
        <_>
          1 7 18 4 -1.</_>
        <_>
          1 7 9 2 2.</_>
        <_>
          10 9 9 2 2.</_></rects>
      <tilted>0</tilted></_>
    <_>
      <rects>
        <_>
          1 9 2 9 -1.</_>
        <_>
          2 9 1 9 2.</_></rects>
      <tilted>0</tilted></_>
    <_>
      <rects>
        <_>
          1 10 3 2 -1.</_>
        <_>
          2 10 1 2 2.</_></rects>
      <tilted>0</tilted></_>
    <_>
      <rects>
        <_>
          1 12 4 5 -1.</_>
        <_>
          3 12 2 5 2.</_></rects>
      <tilted>0</tilted></_>
    <_>
      <rects>
        <_>
          1 13 2 2 -1.</_>
        <_>
          1 13 1 1 2.</_>
        <_>
          2 14 1 1 2.</_></rects>
      <tilted>0</tilted></_>
    <_>
      <rects>
        <_>
          1 16 2 2 -1.</_>
        <_>
          1 16 1 1 2.</_>
        <_>
          2 17 1 1 2.</_></rects>
      <tilted>0</tilted></_>
    <_>
      <rects>
        <_>
          1 16 11 2 -1.</_>
        <_>
          1 17 11 1 2.</_></rects>
      <tilted>0</tilted></_>
    <_>
      <rects>
        <_>
          1 18 1 2 -1.</_>
        <_>
          1 19 1 1 2.</_></rects>
      <tilted>0</tilted></_>
    <_>
      <rects>
        <_>
          1 18 18 2 -1.</_>
        <_>
          1 18 9 1 2.</_>
        <_>
          10 19 9 1 2.</_></rects>
      <tilted>0</tilted></_>
    <_>
      <rects>
        <_>
          1 18 16 2 -1.</_>
        <_>
          1 19 16 1 2.</_></rects>
      <tilted>0</tilted></_>
    <_>
      <rects>
        <_>
          2 0 8 19 -1.</_>
        <_>
          6 0 4 19 2.</_></rects>
      <tilted>0</tilted></_>
    <_>
      <rects>
        <_>
          2 0 18 6 -1.</_>
        <_>
          8 0 6 6 2.</_></rects>
      <tilted>0</tilted></_>
    <_>
      <rects>
        <_>
          2 1 12 8 -1.</_>
        <_>
          2 1 6 4 2.</_>
        <_>
          8 5 6 4 2.</_></rects>
      <tilted>0</tilted></_>
    <_>
      <rects>
        <_>
          2 2 2 8 -1.</_>
        <_>
          3 2 1 8 2.</_></rects>
      <tilted>0</tilted></_>
    <_>
      <rects>
        <_>
          2 2 6 18 -1.</_>
        <_>
          4 2 2 18 2.</_></rects>
      <tilted>0</tilted></_>
    <_>
      <rects>
        <_>
          2 2 8 16 -1.</_>
        <_>
          2 2 4 8 2.</_>
        <_>
          6 10 4 8 2.</_></rects>
      <tilted>0</tilted></_>
    <_>
      <rects>
        <_>
          2 3 12 1 -1.</_>
        <_>
          6 3 4 1 2.</_></rects>
      <tilted>0</tilted></_>
    <_>
      <rects>
        <_>
          2 5 6 2 -1.</_>
        <_>
          2 6 6 1 2.</_></rects>
      <tilted>0</tilted></_>
    <_>
      <rects>
        <_>
          2 6 2 2 -1.</_>
        <_>
          2 6 1 1 2.</_>
        <_>
          3 7 1 1 2.</_></rects>
      <tilted>0</tilted></_>
    <_>
      <rects>
        <_>
          2 8 18 2 -1.</_>
        <_>
          2 8 9 1 2.</_>
        <_>
          11 9 9 1 2.</_></rects>
      <tilted>0</tilted></_>
    <_>
      <rects>
        <_>
          2 8 15 3 -1.</_>
        <_>
          2 9 15 1 2.</_></rects>
      <tilted>0</tilted></_>
    <_>
      <rects>
        <_>
          2 9 2 1 -1.</_>
        <_>
          3 9 1 1 2.</_></rects>
      <tilted>0</tilted></_>
    <_>
      <rects>
        <_>
          2 9 9 2 -1.</_>
        <_>
          2 10 9 1 2.</_></rects>
      <tilted>0</tilted></_>
    <_>
      <rects>
        <_>
          2 11 4 8 -1.</_>
        <_>
          2 15 4 4 2.</_></rects>
      <tilted>0</tilted></_>
    <_>
      <rects>
        <_>
          2 14 11 6 -1.</_>
        <_>
          2 17 11 3 2.</_></rects>
      <tilted>0</tilted></_>
    <_>
      <rects>
        <_>
          2 16 1 2 -1.</_>
        <_>
          2 17 1 1 2.</_></rects>
      <tilted>0</tilted></_>
    <_>
      <rects>
        <_>
          2 16 12 2 -1.</_>
        <_>
          2 17 12 1 2.</_></rects>
      <tilted>0</tilted></_>
    <_>
      <rects>
        <_>
          2 17 15 2 -1.</_>
        <_>
          2 18 15 1 2.</_></rects>
      <tilted>0</tilted></_>
    <_>
      <rects>
        <_>
          2 18 10 2 -1.</_>
        <_>
          2 19 10 1 2.</_></rects>
      <tilted>0</tilted></_>
    <_>
      <rects>
        <_>
          3 0 2 8 -1.</_>
        <_>
          4 0 1 8 2.</_></rects>
      <tilted>0</tilted></_>
    <_>
      <rects>
        <_>
          3 0 4 5 -1.</_>
        <_>
          5 0 2 5 2.</_></rects>
      <tilted>0</tilted></_>
    <_>
      <rects>
        <_>
          3 0 9 8 -1.</_>
        <_>
          3 4 9 4 2.</_></rects>
      <tilted>0</tilted></_>
    <_>
      <rects>
        <_>
          3 0 9 14 -1.</_>
        <_>
          3 7 9 7 2.</_></rects>
      <tilted>0</tilted></_>
    <_>
      <rects>
        <_>
          3 0 10 8 -1.</_>
        <_>
          3 4 10 4 2.</_></rects>
      <tilted>0</tilted></_>
    <_>
      <rects>
        <_>
          3 0 11 10 -1.</_>
        <_>
          3 5 11 5 2.</_></rects>
      <tilted>0</tilted></_>
    <_>
      <rects>
        <_>
          3 1 10 6 -1.</_>
        <_>
          3 4 10 3 2.</_></rects>
      <tilted>0</tilted></_>
    <_>
      <rects>
        <_>
          3 1 16 18 -1.</_>
        <_>
          3 7 16 6 2.</_></rects>
      <tilted>0</tilted></_>
    <_>
      <rects>
        <_>
          3 2 4 12 -1.</_>
        <_>
          3 2 2 6 2.</_>
        <_>
          5 8 2 6 2.</_></rects>
      <tilted>0</tilted></_>
    <_>
      <rects>
        <_>
          3 2 6 2 -1.</_>
        <_>
          3 2 3 1 2.</_>
        <_>
          6 3 3 1 2.</_></rects>
      <tilted>0</tilted></_>
    <_>
      <rects>
        <_>
          3 4 1 3 -1.</_>
        <_>
          3 5 1 1 2.</_></rects>
      <tilted>0</tilted></_>
    <_>
      <rects>
        <_>
          3 4 3 4 -1.</_>
        <_>
          3 6 3 2 2.</_></rects>
      <tilted>0</tilted></_>
    <_>
      <rects>
        <_>
          3 4 12 15 -1.</_>
        <_>
          7 4 4 15 2.</_></rects>
      <tilted>0</tilted></_>
    <_>
      <rects>
        <_>
          3 5 8 12 -1.</_>
        <_>
          3 11 8 6 2.</_></rects>
      <tilted>0</tilted></_>
    <_>
      <rects>
        <_>
          3 6 2 6 -1.</_>
        <_>
          3 6 1 3 2.</_>
        <_>
          4 9 1 3 2.</_></rects>
      <tilted>0</tilted></_>
    <_>
      <rects>
        <_>
          3 7 14 12 -1.</_>
        <_>
          10 7 7 12 2.</_></rects>
      <tilted>0</tilted></_>
    <_>
      <rects>
        <_>
          3 7 10 2 -1.</_>
        <_>
          3 8 10 1 2.</_></rects>
      <tilted>0</tilted></_>
    <_>
      <rects>
        <_>
          3 8 4 4 -1.</_>
        <_>
          5 8 2 4 2.</_></rects>
      <tilted>0</tilted></_>
    <_>
      <rects>
        <_>
          3 8 7 4 -1.</_>
        <_>
          3 10 7 2 2.</_></rects>
      <tilted>0</tilted></_>
    <_>
      <rects>
        <_>
          3 11 3 2 -1.</_>
        <_>
          4 11 1 2 2.</_></rects>
      <tilted>0</tilted></_>
    <_>
      <rects>
        <_>
          3 12 12 2 -1.</_>
        <_>
          3 13 12 1 2.</_></rects>
      <tilted>0</tilted></_>
    <_>
      <rects>
        <_>
          3 13 3 2 -1.</_>
        <_>
          3 14 3 1 2.</_></rects>
      <tilted>0</tilted></_>
    <_>
      <rects>
        <_>
          3 14 16 2 -1.</_>
        <_>
          3 14 8 1 2.</_>
        <_>
          11 15 8 1 2.</_></rects>
      <tilted>0</tilted></_>
    <_>
      <rects>
        <_>
          3 16 15 4 -1.</_>
        <_>
          3 18 15 2 2.</_></rects>
      <tilted>0</tilted></_>
    <_>
      <rects>
        <_>
          3 18 7 2 -1.</_>
        <_>
          3 19 7 1 2.</_></rects>
      <tilted>0</tilted></_>
    <_>
      <rects>
        <_>
          4 0 2 2 -1.</_>
        <_>
          5 0 1 2 2.</_></rects>
      <tilted>0</tilted></_>
    <_>
      <rects>
        <_>
          4 0 10 4 -1.</_>
        <_>
          4 2 10 2 2.</_></rects>
      <tilted>0</tilted></_>
    <_>
      <rects>
        <_>
          4 1 7 6 -1.</_>
        <_>
          4 4 7 3 2.</_></rects>
      <tilted>0</tilted></_>
    <_>
      <rects>
        <_>
          4 2 2 1 -1.</_>
        <_>
          5 2 1 1 2.</_></rects>
      <tilted>0</tilted></_>
