<?xml version="1.0"?>
<opencv_storage>
<cascade>
  <stageType>BOOST</stageType>
  <featureType>HAAR</featureType>
  <height>24</height>
  <width>24</width>
  <stageParams>
    <boostType>GAB</boostType>
    <minHitRate>9.9500000476837158e-01</minHitRate>
    <maxFalseAlarm>5.0000000000000000e-01</maxFalseAlarm>
    <weightTrimRate>9.4999999999999996e-01</weightTrimRate>
    <maxDepth>1</maxDepth>
    <maxWeakCount>100</maxWeakCount></stageParams>
  <featureParams>
    <maxCatCount>0</maxCatCount>
    <featSize>1</featSize>
    <mode>BASIC</mode></featureParams>
  <stageNum>10</stageNum>
  <stages>
    <!-- stage 0 -->
    <_>
      <maxWeakCount>6</maxWeakCount>
      <stageThreshold>-1.0502632856369019e+00</stageThreshold>
      <weakClassifiers>
        <_>
          <internalNodes>
            0 -1 122 -7.9772613942623138e-02</internalNodes>
          <leafValues>
            8.5185188055038452e-01 -4.5362561941146851e-01</leafValues></_>
        <_>
          <internalNodes>
            0 -1 3 -5.8940380811691284e-02</internalNodes>
          <leafValues>
            -5.8159458637237549e-01 5.9049052000045776e-01</leafValues></_>
        <_>
          <internalNodes>
            0 -1 111 -8.4209665656089783e-03</internalNodes>
          <leafValues>
            6.1608594655990601e-01 -2.8572410345077515e-01</leafValues></_>
        <_>
          <internalNodes>
            0 -1 27 2.2387441247701645e-02</internalNodes>
          <leafValues>
            -2.5873041152954102e-01 6.2491184473037720e-01</leafValues></_>
        <_>
          <internalNodes>
            0 -1 83 -1.1148472316563129e-02</internalNodes>
          <leafValues>
            -1.9799993932247162e-01 7.7486538887023926e-01</leafValues></_>
        <_>
          <internalNodes>
            0 -1 138 -1.0940211825072765e-02</internalNodes>
          <leafValues>
            7.5956487655639648e-01 -1.5623086690902710e-01</leafValues></_></weakClassifiers></_>
    <!-- stage 1 -->
    <_>
      <maxWeakCount>8</maxWeakCount>
      <stageThreshold>-1.0732959508895874e+00</stageThreshold>
      <weakClassifiers>
        <_>
          <internalNodes>
            0 -1 153 -2.3891538381576538e-02</internalNodes>
          <leafValues>
            -5.5357140302658081e-01 4.8883375525474548e-01</leafValues></_>
        <_>
          <internalNodes>
            0 -1 124 -9.1318160295486450e-02</internalNodes>
          <leafValues>
            7.0618939399719238e-01 -3.1741940975189209e-01</leafValues></_>
        <_>
          <internalNodes>
            0 -1 55 3.9702340960502625e-02</internalNodes>
          <leafValues>
            -3.6582216620445251e-01 4.3180570006370544e-01</leafValues></_>
        <_>
          <internalNodes>
            0 -1 115 -6.7732095718383789e-02</internalNodes>
          <leafValues>
            -7.4984252452850342e-01 2.0857551693916321e-01</leafValues></_>
        <_>
          <internalNodes>
            0 -1 23 6.3982889056205750e-02</internalNodes>
          <leafValues>
            -2.4493129551410675e-01 6.3571029901504517e-01</leafValues></_>
        <_>
          <internalNodes>
            0 -1 53 -1.0143583640456200e-02</internalNodes>
          <leafValues>
            6.3047534227371216e-01 -2.1047501266002655e-01</leafValues></_>
        <_>
          <internalNodes>
            0 -1 113 -8.2892626523971558e-03</internalNodes>
          <leafValues>
            6.4207053184509277e-01 -1.6423608362674713e-01</leafValues></_>
        <_>
          <internalNodes>
            0 -1 140 -1.1708097532391548e-02</internalNodes>
          <leafValues>
            5.7458400726318359e-01 -2.2380016744136810e-01</leafValues></_></weakClassifiers></_>
    <!-- stage 2 -->
    <_>
      <maxWeakCount>14</maxWeakCount>
      <stageThreshold>-1.3142353296279907e+00</stageThreshold>
      <weakClassifiers>
        <_>
          <internalNodes>
            0 -1 4 -4.5253264904022217e-01</internalNodes>
          <leafValues>
            -3.9487180113792419e-01 6.7669171094894409e-01</leafValues></_>
        <_>
          <internalNodes>
            0 -1 56 8.0269031226634979e-02</internalNodes>
          <leafValues>
            -3.6069124937057495e-01 5.4179310798645020e-01</leafValues></_>
        <_>
          <internalNodes>
            0 -1 135 -2.8605679050087929e-02</internalNodes>
          <leafValues>
            6.7339777946472168e-01 -1.7523548007011414e-01</leafValues></_>
        <_>
          <internalNodes>
            0 -1 134 -2.2067294048611075e-04</internalNodes>
          <leafValues>
            -4.4830808043479919e-01 2.1672074496746063e-01</leafValues></_>
        <_>
          <internalNodes>
            0 -1 45 -4.4726636260747910e-02</internalNodes>
          <leafValues>
            -7.1219587326049805e-01 1.2151497602462769e-01</leafValues></_>
        <_>
          <internalNodes>
            0 -1 25 1.4680157601833344e-01</internalNodes>
          <leafValues>
            -1.4709796011447906e-01 6.9300150871276855e-01</leafValues></_>
        <_>
          <internalNodes>
            0 -1 108 -2.4570138193666935e-03</internalNodes>
          <leafValues>
            -6.8028068542480469e-01 1.4045639336109161e-01</leafValues></_>
        <_>
          <internalNodes>
            0 -1 141 -1.4919592067599297e-02</internalNodes>
          <leafValues>
            5.1469570398330688e-01 -1.8570995330810547e-01</leafValues></_>
        <_>
          <internalNodes>
            0 -1 136 2.2445768117904663e-03</internalNodes>
          <leafValues>
            1.1509151011705399e-01 -7.7482956647872925e-01</leafValues></_>
        <_>
          <internalNodes>
            0 -1 17 1.1447644792497158e-02</internalNodes>
          <leafValues>
            -1.8812663853168488e-01 5.0016433000564575e-01</leafValues></_>
        <_>
          <internalNodes>
            0 -1 5 -4.4299554429017007e-04</internalNodes>
          <leafValues>
            -6.5170645713806152e-01 1.3693228363990784e-01</leafValues></_>
        <_>
          <internalNodes>
            0 -1 70 -6.4823445864021778e-03</internalNodes>
          <leafValues>
            -9.5620435476303101e-01 9.9267184734344482e-02</leafValues></_>
        <_>
          <internalNodes>
            0 -1 89 -1.8588397651910782e-03</internalNodes>
          <leafValues>
            3.7400147318840027e-01 -2.2493879497051239e-01</leafValues></_>
        <_>
          <internalNodes>
            0 -1 6 -1.4686717186123133e-03</internalNodes>
          <leafValues>
            -7.3370826244354248e-01 1.2870880961418152e-01</leafValues></_></weakClassifiers></_>
    <!-- stage 3 -->
    <_>
      <maxWeakCount>16</maxWeakCount>
      <stageThreshold>-1.0297126770019531e+00</stageThreshold>
      <weakClassifiers>
        <_>
          <internalNodes>
            0 -1 34 -7.7075374126434326e-01</internalNodes>
          <leafValues>
            -3.8648179173469543e-01 6.2773722410202026e-01</leafValues></_>
        <_>
          <internalNodes>
            0 -1 14 9.1097056865692139e-02</internalNodes>
          <leafValues>
            -2.5715926289558411e-01 4.8585173487663269e-01</leafValues></_>
        <_>
          <internalNodes>
            0 -1 36 -3.3829111605882645e-02</internalNodes>
          <leafValues>
            -6.8689656257629395e-01 1.7212961614131927e-01</leafValues></_>
        <_>
          <internalNodes>
            0 -1 127 -1.8907804042100906e-02</internalNodes>
          <leafValues>
            5.2966332435607910e-01 -2.7491304278373718e-01</leafValues></_>
        <_>
          <internalNodes>
            0 -1 66 -4.5130059123039246e-02</internalNodes>
          <leafValues>
            6.1245149374008179e-01 -1.7241027951240540e-01</leafValues></_>
        <_>
          <internalNodes>
            0 -1 38 -2.8688586317002773e-03</internalNodes>
          <leafValues>
            -8.3273190259933472e-01 9.5932573080062866e-02</leafValues></_>
        <_>
          <internalNodes>
            0 -1 117 -5.9732384979724884e-02</internalNodes>
          <leafValues>
            4.3304094672203064e-01 -1.6830889880657196e-01</leafValues></_>
        <_>
          <internalNodes>
            0 -1 10 -6.9892801344394684e-02</internalNodes>
          <leafValues>
            -8.5804879665374756e-01 1.0824783146381378e-01</leafValues></_>
        <_>
          <internalNodes>
            0 -1 48 -8.6143810767680407e-04</internalNodes>
          <leafValues>
            -3.9904317259788513e-01 1.8367396295070648e-01</leafValues></_>
        <_>
          <internalNodes>
            0 -1 28 5.9809926897287369e-03</internalNodes>
          <leafValues>
            -1.5656162798404694e-01 5.6736373901367188e-01</leafValues></_>
        <_>
          <internalNodes>
            0 -1 119 -1.0356092825531960e-02</internalNodes>
          <leafValues>
            3.2261466979980469e-01 -2.2512494027614594e-01</leafValues></_>
        <_>
          <internalNodes>
            0 -1 133 -1.3356481213122606e-03</internalNodes>
          <leafValues>
            -4.6833252906799316e-01 1.4458818733692169e-01</leafValues></_>
        <_>
          <internalNodes>
            0 -1 116 -6.2715997919440269e-03</internalNodes>
          <leafValues>
            4.5911124348640442e-01 -1.5693673491477966e-01</leafValues></_>
        <_>
          <internalNodes>
            0 -1 2 -4.1169583797454834e-02</internalNodes>
          <leafValues>
            -1.7717678844928741e-01 4.2431217432022095e-01</leafValues></_>
        <_>
          <internalNodes>
            0 -1 18 7.3597547598183155e-03</internalNodes>
          <leafValues>
            1.2334514409303665e-01 -6.0081511735916138e-01</leafValues></_>
        <_>
          <internalNodes>
            0 -1 26 7.9605961218476295e-04</internalNodes>
          <leafValues>
            -3.0190947651863098e-01 2.4011467397212982e-01</leafValues></_></weakClassifiers></_>
    <!-- stage 4 -->
    <_>
      <maxWeakCount>14</maxWeakCount>
      <stageThreshold>-1.0955551862716675e+00</stageThreshold>
      <weakClassifiers>
        <_>
          <internalNodes>
            0 -1 47 5.2131306380033493e-02</internalNodes>
          <leafValues>
            -4.9240779876708984e-01 4.5128205418586731e-01</leafValues></_>
        <_>
          <internalNodes>
            0 -1 92 -2.0885108038783073e-02</internalNodes>
          <leafValues>
            2.6046490669250488e-01 -3.9898237586021423e-01</leafValues></_>
        <_>
          <internalNodes>
            0 -1 64 -5.5163398385047913e-02</internalNodes>
          <leafValues>
            7.2720927000045776e-01 -1.3143147528171539e-01</leafValues></_>
        <_>
          <internalNodes>
            0 -1 75 -2.5216533686034381e-04</internalNodes>
          <leafValues>
            2.7460521459579468e-01 -2.7325022220611572e-01</leafValues></_>
        <_>
          <internalNodes>
            0 -1 144 -6.9126188755035400e-03</internalNodes>
          <leafValues>
            2.9301539063453674e-01 -2.2396352887153625e-01</leafValues></_>
        <_>
          <internalNodes>
            0 -1 150 -3.2163344440050423e-04</internalNodes>
          <leafValues>
            -4.7143593430519104e-01 1.7823059856891632e-01</leafValues></_>
        <_>
          <internalNodes>
            0 -1 59 5.8442833833396435e-03</internalNodes>
          <leafValues>
            -1.1301945149898529e-01 7.3270463943481445e-01</leafValues></_>
        <_>
          <internalNodes>
            0 -1 82 7.8271776437759399e-03</internalNodes>
          <leafValues>
            7.9396940767765045e-02 -8.1736165285110474e-01</leafValues></_>
        <_>
          <internalNodes>
            0 -1 21 -6.4770487369969487e-04</internalNodes>
          <leafValues>
            -7.1782058477401733e-01 8.4798023104667664e-02</leafValues></_>
        <_>
          <internalNodes>
            0 -1 21 6.4294564072042704e-04</internalNodes>
          <leafValues>
            1.0088126361370087e-01 -7.0947253704071045e-01</leafValues></_>
        <_>
          <internalNodes>
            0 -1 78 -5.6114802137017250e-03</internalNodes>
          <leafValues>
            3.6985698342323303e-01 -1.8995176255702972e-01</leafValues></_>
        <_>
          <internalNodes>
            0 -1 44 -5.7443580590188503e-03</internalNodes>
          <leafValues>
            6.0446441173553467e-01 -1.0678942501544952e-01</leafValues></_>
        <_>
          <internalNodes>
            0 -1 62 4.5186537317931652e-03</internalNodes>
          <leafValues>
            8.1644192337989807e-02 -9.1145455837249756e-01</leafValues></_>
        <_>
          <internalNodes>
            0 -1 39 1.1548080947250128e-03</internalNodes>
          <leafValues>
            5.4809261113405228e-02 -8.3466511964797974e-01</leafValues></_></weakClassifiers></_>
    <!-- stage 5 -->
    <_>
      <maxWeakCount>15</maxWeakCount>
      <stageThreshold>-1.3633568286895752e+00</stageThreshold>
      <weakClassifiers>
        <_>
          <internalNodes>
            0 -1 74 2.7022667229175568e-02</internalNodes>
          <leafValues>
            -4.7415730357170105e-01 3.9408865571022034e-01</leafValues></_>
        <_>
          <internalNodes>
            0 -1 61 -1.3053229451179504e-01</internalNodes>
          <leafValues>
            1.9564409554004669e-01 -6.3061851263046265e-01</leafValues></_>
        <_>
          <internalNodes>
            0 -1 100 -5.5868374183773994e-03</internalNodes>
          <leafValues>
            5.8237272500991821e-01 -2.2114267945289612e-01</leafValues></_>
        <_>
          <internalNodes>
            0 -1 80 -1.4245480997487903e-03</internalNodes>
          <leafValues>
            4.4164463877677917e-01 -2.0810188353061676e-01</leafValues></_>
        <_>
          <internalNodes>
            0 -1 7 6.4830435439944267e-03</internalNodes>
          <leafValues>
            -2.4785532057285309e-01 3.7206199765205383e-01</leafValues></_>
        <_>
          <internalNodes>
            0 -1 90 5.3840861655771732e-03</internalNodes>
          <leafValues>
            -1.3388493657112122e-01 6.5946173667907715e-01</leafValues></_>
        <_>
          <internalNodes>
            0 -1 52 -6.8406891077756882e-03</internalNodes>
          <leafValues>
            4.7827032208442688e-01 -2.1028733253479004e-01</leafValues></_>
        <_>
          <internalNodes>
            0 -1 40 -1.0786614380776882e-02</internalNodes>
          <leafValues>
            6.0393089056015015e-01 -1.6102372109889984e-01</leafValues></_>
        <_>
          <internalNodes>
            0 -1 72 -2.5467497762292624e-03</internalNodes>
          <leafValues>
            5.4740369319915771e-01 -1.6818214952945709e-01</leafValues></_>
        <_>
          <internalNodes>
            0 -1 110 2.9442839324474335e-02</internalNodes>
          <leafValues>
            -1.5638977289199829e-01 5.7649809122085571e-01</leafValues></_>
        <_>
          <internalNodes>
            0 -1 86 -1.8466895446181297e-02</internalNodes>
          <leafValues>
            6.4215826988220215e-01 -1.4620772004127502e-01</leafValues></_>
        <_>
          <internalNodes>
            0 -1 137 -3.2342572230845690e-03</internalNodes>
          <leafValues>
            3.9729893207550049e-01 -2.5378280878067017e-01</leafValues></_>
        <_>
          <internalNodes>
            0 -1 114 8.2677463069558144e-03</internalNodes>
          <leafValues>
            -1.5376856923103333e-01 6.7856007814407349e-01</leafValues></_>
        <_>
          <internalNodes>
            0 -1 120 5.9735029935836792e-02</internalNodes>
          <leafValues>
            -1.4676797389984131e-01 5.8767610788345337e-01</leafValues></_>
        <_>
          <internalNodes>
            0 -1 31 2.0333310589194298e-02</internalNodes>
          <leafValues>
            -2.6297459006309509e-01 3.8045778870582581e-01</leafValues></_></weakClassifiers></_>
    <!-- stage 6 -->
    <_>
      <maxWeakCount>15</maxWeakCount>
      <stageThreshold>-6.5632146596908569e-01</stageThreshold>
      <weakClassifiers>
        <_>
          <internalNodes>
            0 -1 60 4.5564677566289902e-03</internalNodes>
          <leafValues>
            -4.6445497870445251e-01 3.3799535036087036e-01</leafValues></_>
        <_>
          <internalNodes>
            0 -1 51 5.4687999188899994e-02</internalNodes>
          <leafValues>
            -4.3647372722625732e-01 2.8205290436744690e-01</leafValues></_>
        <_>
          <internalNodes>
            0 -1 81 3.5032519372180104e-04</internalNodes>
          <leafValues>
            -2.4337223172187805e-01 3.8494712114334106e-01</leafValues></_>
        <_>
          <internalNodes>
            0 -1 35 3.2272776588797569e-03</internalNodes>
          <leafValues>
            -2.5427749752998352e-01 3.2326591014862061e-01</leafValues></_>
        <_>
          <internalNodes>
            0 -1 118 -6.9091869518160820e-03</internalNodes>
          <leafValues>
            1.6266372799873352e-01 -6.6977071762084961e-01</leafValues></_>
        <_>
          <internalNodes>
            0 -1 97 -1.8586218357086182e-03</internalNodes>
          <leafValues>
            3.3959358930587769e-01 -2.6244229078292847e-01</leafValues></_>
        <_>
          <internalNodes>
            0 -1 145 -1.3285593595355749e-03</internalNodes>
          <leafValues>
            3.0176770687103271e-01 -2.5777775049209595e-01</leafValues></_>
        <_>
          <internalNodes>
            0 -1 84 9.5604285597801208e-03</internalNodes>
          <leafValues>
            -2.2372306883335114e-01 3.6262083053588867e-01</leafValues></_>
        <_>
          <internalNodes>
            0 -1 131 -1.2694438919425011e-03</internalNodes>
          <leafValues>
            -8.7426841259002686e-01 1.3414515554904938e-01</leafValues></_>
        <_>
          <internalNodes>
            0 -1 20 4.5304466038942337e-03</internalNodes>
          <leafValues>
            -1.7614977061748505e-01 6.4096975326538086e-01</leafValues></_>
        <_>
          <internalNodes>
            0 -1 43 -2.1372782066464424e-03</internalNodes>
          <leafValues>
            5.0136703252792358e-01 -1.5712633728981018e-01</leafValues></_>
        <_>
          <internalNodes>
            0 -1 148 -3.6658425815403461e-03</internalNodes>
          <leafValues>
            3.0885460972785950e-01 -2.1962513029575348e-01</leafValues></_>
        <_>
          <internalNodes>
            0 -1 147 -3.9325663819909096e-03</internalNodes>
          <leafValues>
            -6.4174401760101318e-01 1.4594018459320068e-01</leafValues></_>
        <_>
          <internalNodes>
            0 -1 95 -1.0743213817477226e-02</internalNodes>
          <leafValues>
            7.0056088268756866e-02 -7.3322737216949463e-01</leafValues></_>
        <_>
          <internalNodes>
            0 -1 63 3.8791599217802286e-04</internalNodes>
          <leafValues>
            -1.7466990649700165e-01 3.9670643210411072e-01</leafValues></_></weakClassifiers></_>
    <!-- stage 7 -->
    <_>
      <maxWeakCount>21</maxWeakCount>
      <stageThreshold>-1.0494449138641357e+00</stageThreshold>
      <weakClassifiers>
        <_>
          <internalNodes>
            0 -1 49 8.2277327775955200e-02</internalNodes>
          <leafValues>
            -4.6188339591026306e-01 3.8271605968475342e-01</leafValues></_>
        <_>
          <internalNodes>
            0 -1 65 -3.0671581625938416e-02</internalNodes>
          <leafValues>
            6.1762487888336182e-01 -1.4679573476314545e-01</leafValues></_>
        <_>
          <internalNodes>
            0 -1 96 2.2021410986781120e-02</internalNodes>
          <leafValues>
            -2.1850569546222687e-01 3.2071569561958313e-01</leafValues></_>
        <_>
          <internalNodes>
            0 -1 0 7.2883279062807560e-04</internalNodes>
          <leafValues>
            1.2375017255544662e-01 -6.3167822360992432e-01</leafValues></_>
        <_>
          <internalNodes>
            0 -1 128 -1.4553956687450409e-02</internalNodes>
          <leafValues>
            2.2823740541934967e-01 -2.9442366957664490e-01</leafValues></_>
        <_>
          <internalNodes>
            0 -1 33 -8.9405447244644165e-02</internalNodes>
          <leafValues>
            3.2810670137405396e-01 -2.0075376331806183e-01</leafValues></_>
        <_>
          <internalNodes>
            0 -1 41 1.3432221487164497e-02</internalNodes>
          <leafValues>
            -1.8543182313442230e-01 3.4412333369255066e-01</leafValues></_>
        <_>
          <internalNodes>
            0 -1 146 6.6833669552579522e-04</internalNodes>
          <leafValues>
            1.9476158916950226e-01 -3.8266310095787048e-01</leafValues></_>
        <_>
          <internalNodes>
            0 -1 101 5.5548676755279303e-04</internalNodes>
          <leafValues>
            9.9749654531478882e-02 -5.3624469041824341e-01</leafValues></_>
        <_>
          <internalNodes>
            0 -1 102 -1.6040783375501633e-03</internalNodes>
          <leafValues>
            -8.7047785520553589e-01 6.6229403018951416e-02</leafValues></_>
        <_>
          <internalNodes>
            0 -1 85 -2.8708441182971001e-02</internalNodes>
          <leafValues>
            6.5147109329700470e-02 -7.5856798887252808e-01</leafValues></_>
        <_>
          <internalNodes>
            0 -1 151 -1.0463902726769447e-03</internalNodes>
          <leafValues>
            -8.1987994909286499e-01 5.2652381360530853e-02</leafValues></_>
        <_>
          <internalNodes>
            0 -1 15 2.9895737767219543e-02</internalNodes>
          <leafValues>
            -1.4647424221038818e-01 4.0194082260131836e-01</leafValues></_>
        <_>
          <internalNodes>
            0 -1 67 2.9688270296901464e-03</internalNodes>
          <leafValues>
            -1.7321372032165527e-01 3.7584975361824036e-01</leafValues></_>
        <_>
          <internalNodes>
            0 -1 129 -2.6005327701568604e-02</internalNodes>
          <leafValues>
            4.3334218859672546e-01 -1.3232257962226868e-01</leafValues></_>
        <_>
          <internalNodes>
            0 -1 130 9.7861178219318390e-03</internalNodes>
          <leafValues>
            -9.5580980181694031e-02 6.5194141864776611e-01</leafValues></_>
        <_>
          <internalNodes>
            0 -1 103 -9.1682095080614090e-04</internalNodes>
          <leafValues>
            -7.5780165195465088e-01 9.6000991761684418e-02</leafValues></_>
        <_>
          <internalNodes>
            0 -1 121 3.1490548280999064e-04</internalNodes>
          <leafValues>
            -2.6926320791244507e-01 2.4587441980838776e-01</leafValues></_>
        <_>
          <internalNodes>
            0 -1 73 -5.5223852396011353e-02</internalNodes>
          <leafValues>
            5.9970146417617798e-01 -1.1484610289335251e-01</leafValues></_>
        <_>
          <internalNodes>
            0 -1 87 4.0070395916700363e-03</internalNodes>
          <leafValues>
            1.0454642772674561e-01 -5.9790700674057007e-01</leafValues></_>
        <_>
          <internalNodes>
            0 -1 50 -4.3557494878768921e-02</internalNodes>
          <leafValues>
            7.9721146821975708e-01 -9.3225717544555664e-02</leafValues></_></weakClassifiers></_>
    <!-- stage 8 -->
    <_>
      <maxWeakCount>22</maxWeakCount>
      <stageThreshold>-9.8417395353317261e-01</stageThreshold>
      <weakClassifiers>
        <_>
          <internalNodes>
            0 -1 9 1.6957126557826996e-02</internalNodes>
          <leafValues>
            -2.9479768872261047e-01 3.0722892284393311e-01</leafValues></_>
        <_>
          <internalNodes>
            0 -1 94 -3.5873088985681534e-02</internalNodes>
          <leafValues>
            4.0644344687461853e-01 -1.6659383475780487e-01</leafValues></_>
        <_>
          <internalNodes>
            0 -1 54 3.3267596736550331e-03</internalNodes>
          <leafValues>
            -2.6411128044128418e-01 2.7674931287765503e-01</leafValues></_>
        <_>
          <internalNodes>
            0 -1 32 -1.9231587648391724e-01</internalNodes>
          <leafValues>
            -1.6178913414478302e-01 4.6794924139976501e-01</leafValues></_>
        <_>
          <internalNodes>
            0 -1 68 3.1801103614270687e-03</internalNodes>
          <leafValues>
            -1.4810372889041901e-01 3.9855784177780151e-01</leafValues></_>
        <_>
          <internalNodes>
            0 -1 106 3.0387705919565633e-05</internalNodes>
          <leafValues>
            -2.7768838405609131e-01 2.0892126858234406e-01</leafValues></_>
        <_>
          <internalNodes>
            0 -1 69 -2.2745691239833832e-03</internalNodes>
          <leafValues>
            4.2634874582290649e-01 -1.4157338440418243e-01</leafValues></_>
        <_>
          <internalNodes>
            0 -1 57 3.1724795699119568e-02</internalNodes>
          <leafValues>
            -1.0156337916851044e-01 4.9419584870338440e-01</leafValues></_>
        <_>
          <internalNodes>
            0 -1 109 -1.7455727793276310e-03</internalNodes>
          <leafValues>
            2.6189416646957397e-01 -2.3200213909149170e-01</leafValues></_>
        <_>
          <internalNodes>
            0 -1 139 -1.1323352344334126e-02</internalNodes>
          <leafValues>
            4.3685817718505859e-01 -1.2002214789390564e-01</leafValues></_>
        <_>
          <internalNodes>
            0 -1 125 3.9518810808658600e-02</internalNodes>
          <leafValues>
            -1.1200957745313644e-01 6.5717041492462158e-01</leafValues></_>
        <_>
          <internalNodes>
            0 -1 88 3.9975205436348915e-03</internalNodes>
          <leafValues>
            8.9151680469512939e-02 -7.4027335643768311e-01</leafValues></_>
        <_>
          <internalNodes>
            0 -1 132 -1.8034342676401138e-02</internalNodes>
          <leafValues>
            8.6151540279388428e-01 -7.4783183634281158e-02</leafValues></_>
        <_>
          <internalNodes>
            0 -1 13 5.7289944961667061e-03</internalNodes>
          <leafValues>
            -1.0641772300004959e-01 4.3477842211723328e-01</leafValues></_>
        <_>
          <internalNodes>
            0 -1 22 1.2848639860749245e-02</internalNodes>
          <leafValues>
            -2.1279162168502808e-01 2.5205063819885254e-01</leafValues></_>
        <_>
          <internalNodes>
            0 -1 77 -2.9051881283521652e-03</internalNodes>
          <leafValues>
            3.9121761918067932e-01 -1.6154193878173828e-01</leafValues></_>
        <_>
          <internalNodes>
            0 -1 11 4.6208566054701805e-03</internalNodes>
          <leafValues>
            -2.0901097357273102e-01 2.6576602458953857e-01</leafValues></_>
        <_>
          <internalNodes>
            0 -1 76 -7.6778521761298180e-03</internalNodes>
          <leafValues>
            3.3792099356651306e-01 -1.7157652974128723e-01</leafValues></_>
        <_>
          <internalNodes>
            0 -1 123 3.9849579334259033e-03</internalNodes>
          <leafValues>
            -1.0532718896865845e-01 5.5040878057479858e-01</leafValues></_>
        <_>
          <internalNodes>
            0 -1 42 1.9387893553357571e-04</internalNodes>
          <leafValues>
            -2.8996735811233521e-01 2.3726324737071991e-01</leafValues></_>
        <_>
          <internalNodes>
            0 -1 1 -7.3487893678247929e-04</internalNodes>
          <leafValues>
            -6.1556613445281982e-01 9.4095759093761444e-02</leafValues></_>
        <_>
          <internalNodes>
            0 -1 126 -6.2086887191981077e-04</internalNodes>
          <leafValues>
            2.9041922092437744e-01 -1.9896541535854340e-01</leafValues></_></weakClassifiers></_>
    <!-- stage 9 -->
    <_>
      <maxWeakCount>25</maxWeakCount>
      <stageThreshold>-9.2195707559585571e-01</stageThreshold>
      <weakClassifiers>
        <_>
          <internalNodes>
            0 -1 105 -2.5061531923711300e-03</internalNodes>
          <leafValues>
            1.5581853687763214e-01 -3.7790697813034058e-01</leafValues></_>
        <_>
          <internalNodes>
            0 -1 114 -6.5203025005757809e-03</internalNodes>
          <leafValues>
            2.8314450383186340e-01 -1.8629981577396393e-01</leafValues></_>
        <_>
          <internalNodes>
            0 -1 24 1.9672632217407227e-02</internalNodes>
          <leafValues>
            -2.7852612733840942e-01 2.0850147306919098e-01</leafValues></_>
        <_>
          <internalNodes>
            0 -1 8 4.7367829829454422e-03</internalNodes>
          <leafValues>
            1.1864404380321503e-01 -6.2770515680313110e-01</leafValues></_>
        <_>
          <internalNodes>
            0 -1 29 2.9294170439243317e-02</internalNodes>
          <leafValues>
            -1.3349691033363342e-01 5.0543928146362305e-01</leafValues></_>
        <_>
          <internalNodes>
            0 -1 19 -1.3164395466446877e-02</internalNodes>
          <leafValues>
            2.7929639816284180e-01 -1.6727516055107117e-01</leafValues></_>
        <_>
          <internalNodes>
            0 -1 104 5.6932978332042694e-03</internalNodes>
          <leafValues>
            -2.1231573820114136e-01 2.3637925088405609e-01</leafValues></_>
        <_>
          <internalNodes>
            0 -1 112 1.0797239840030670e-02</internalNodes>
          <leafValues>
            -1.3557921350002289e-01 3.8814473152160645e-01</leafValues></_>
        <_>
          <internalNodes>
            0 -1 152 6.5361607994418591e-05</internalNodes>
          <leafValues>
            1.6702140867710114e-01 -2.9374635219573975e-01</leafValues></_>
        <_>
          <internalNodes>
            0 -1 91 5.7187397032976151e-03</internalNodes>
          <leafValues>
            9.0295396745204926e-02 -5.5013650655746460e-01</leafValues></_>
        <_>
          <internalNodes>
            0 -1 58 -3.8124585989862680e-04</internalNodes>
          <leafValues>
            2.9107606410980225e-01 -1.6682092845439911e-01</leafValues></_>
        <_>
          <internalNodes>
            0 -1 37 1.1528573930263519e-02</internalNodes>
          <leafValues>
            5.8834251016378403e-02 -7.5387990474700928e-01</leafValues></_>
        <_>
          <internalNodes>
            0 -1 30 2.2003028541803360e-02</internalNodes>
          <leafValues>
            -6.2664322555065155e-02 8.2753312587738037e-01</leafValues></_>
        <_>
          <internalNodes>
            0 -1 79 -3.1733352690935135e-02</internalNodes>
          <leafValues>
            -3.8388580083847046e-02 8.1844860315322876e-01</leafValues></_>
        <_>
          <internalNodes>
            0 -1 149 4.1685931500978768e-04</internalNodes>
          <leafValues>
            9.4667509198188782e-02 -5.6179338693618774e-01</leafValues></_>
        <_>
          <internalNodes>
            0 -1 98 8.5984483361244202e-02</internalNodes>
          <leafValues>
            -6.6694989800453186e-02 7.8025156259536743e-01</leafValues></_>
        <_>
          <internalNodes>
            0 -1 142 -5.1181968301534653e-03</internalNodes>
          <leafValues>
            3.0213153362274170e-01 -1.5038074553012848e-01</leafValues></_>
        <_>
          <internalNodes>
            0 -1 143 -2.2267602384090424e-02</internalNodes>
          <leafValues>
            -4.9666240811347961e-01 9.8038889467716217e-02</leafValues></_>
        <_>
          <internalNodes>
            0 -1 16 1.0610416531562805e-02</internalNodes>
          <leafValues>
            -1.1322971433401108e-01 4.4993612170219421e-01</leafValues></_>
        <_>
          <internalNodes>
            0 -1 71 4.1803675703704357e-03</internalNodes>
          <leafValues>
            5.7828668504953384e-02 -8.5056877136230469e-01</leafValues></_>
        <_>
          <internalNodes>
            0 -1 99 1.1368638370186090e-03</internalNodes>
          <leafValues>
            -1.5002286434173584e-01 3.1749147176742554e-01</leafValues></_>
        <_>
          <internalNodes>
            0 -1 12 -4.0387324988842010e-03</internalNodes>
          <leafValues>
            -6.1928522586822510e-01 9.3694306910037994e-02</leafValues></_>
        <_>
          <internalNodes>
            0 -1 46 -1.7433768138289452e-02</internalNodes>
          <leafValues>
            6.7913699150085449e-01 -8.6435690522193909e-02</leafValues></_>
        <_>
          <internalNodes>
            0 -1 93 1.0772017762064934e-02</internalNodes>
          <leafValues>
            6.8811282515525818e-02 -8.5617119073867798e-01</leafValues></_>
        <_>
          <internalNodes>
            0 -1 107 -3.6414591595530510e-03</internalNodes>
          <leafValues>
            -8.0892020463943481e-01 3.4592203795909882e-02</leafValues></_></weakClassifiers></_></stages>
  <features>
    <_>
      <rects>
        <_>
          0 0 2 1 -1.</_>
        <_>
          1 0 1 1 2.</_></rects>
      <tilted>0</tilted></_>
    <_>
      <rects>
        <_>
          0 0 1 2 -1.</_>
        <_>
          0 1 1 1 2.</_></rects>
      <tilted>0</tilted></_>
    <_>
      <rects>
        <_>
          0 0 5 6 -1.</_>
        <_>
          0 2 5 2 2.</_></rects>
      <tilted>0</tilted></_>
    <_>
      <rects>
        <_>
          0 0 24 1 -1.</_>
        <_>
          8 0 8 1 2.</_></rects>
      <tilted>0</tilted></_>
    <_>
      <rects>
        <_>
          0 0 24 13 -1.</_>
        <_>
          8 0 8 13 2.</_></rects>
      <tilted>0</tilted></_>
    <_>
      <rects>
        <_>
          0 1 1 2 -1.</_>
        <_>
          0 2 1 1 2.</_></rects>
      <tilted>0</tilted></_>
    <_>
      <rects>
        <_>
          0 1 4 2 -1.</_>
        <_>
          0 1 2 1 2.</_>
        <_>
          2 2 2 1 2.</_></rects>
      <tilted>0</tilted></_>
    <_>
      <rects>
        <_>
          0 1 8 8 -1.</_>
        <_>
          0 1 4 4 2.</_>
        <_>
          4 5 4 4 2.</_></rects>
      <tilted>0</tilted></_>
    <_>
      <rects>
        <_>
          0 2 1 6 -1.</_>
        <_>
          0 5 1 3 2.</_></rects>
      <tilted>0</tilted></_>
    <_>
      <rects>
        <_>
          0 2 6 10 -1.</_>
        <_>
          3 2 3 10 2.</_></rects>
      <tilted>0</tilted></_>
    <_>
      <rects>
        <_>
          0 2 12 1 -1.</_>
        <_>
          4 2 4 1 2.</_></rects>
      <tilted>0</tilted></_>
    <_>
      <rects>
        <_>
          0 2 7 6 -1.</_>
        <_>
          0 5 7 3 2.</_></rects>
      <tilted>0</tilted></_>
    <_>
      <rects>
        <_>
          0 3 2 6 -1.</_>
        <_>
          1 3 1 6 2.</_></rects>
      <tilted>0</tilted></_>
    <_>
      <rects>
        <_>
          0 6 2 15 -1.</_>
        <_>
          1 6 1 15 2.</_></rects>
      <tilted>0</tilted></_>
    <_>
      <rects>
        <_>
          0 6 12 12 -1.</_>
        <_>
          6 6 6 12 2.</_></rects>
      <tilted>0</tilted></_>
    <_>
      <rects>
        <_>
          0 8 8 8 -1.</_>
        <_>
          0 12 8 4 2.</_></rects>
      <tilted>0</tilted></_>
    <_>
      <rects>
        <_>
          0 9 4 12 -1.</_>
        <_>
          0 9 2 6 2.</_>
        <_>
          2 15 2 6 2.</_></rects>
      <tilted>0</tilted></_>
    <_>
      <rects>
        <_>
          0 11 4 7 -1.</_>
        <_>
          2 11 2 7 2.</_></rects>
      <tilted>0</tilted></_>
    <_>
      <rects>
        <_>
          0 11 12 2 -1.</_>
        <_>
          0 12 12 1 2.</_></rects>
      <tilted>0</tilted></_>
    <_>
      <rects>
        <_>
          0 17 15 4 -1.</_>
        <_>
          0 19 15 2 2.</_></rects>
      <tilted>0</tilted></_>
    <_>
      <rects>
        <_>
          0 21 7 2 -1.</_>
        <_>
          0 22 7 1 2.</_></rects>
      <tilted>0</tilted></_>
    <_>
      <rects>
        <_>
          1 0 2 2 -1.</_>
        <_>
          1 0 1 1 2.</_>
        <_>
          2 1 1 1 2.</_></rects>
      <tilted>0</tilted></_>
    <_>
      <rects>
        <_>
          1 0 8 12 -1.</_>
        <_>
          1 0 4 6 2.</_>
        <_>
          5 6 4 6 2.</_></rects>
      <tilted>0</tilted></_>
    <_>
      <rects>
        <_>
          1 0 8 20 -1.</_>
        <_>
          5 0 4 20 2.</_></rects>
      <tilted>0</tilted></_>
    <_>
      <rects>
        <_>
          1 2 8 10 -1.</_>
        <_>
          1 7 8 5 2.</_></rects>
      <tilted>0</tilted></_>
    <_>
      <rects>
        <_>
          1 3 10 21 -1.</_>
        <_>
          6 3 5 21 2.</_></rects>
      <tilted>0</tilted></_>
    <_>
      <rects>
        <_>
          1 8 9 4 -1.</_>
        <_>
          1 10 9 2 2.</_></rects>
      <tilted>0</tilted></_>
    <_>
      <rects>
        <_>
          1 9 6 10 -1.</_>
        <_>
          4 9 3 10 2.</_></rects>
      <tilted>0</tilted></_>
    <_>
      <rects>
        <_>
          1 11 2 9 -1.</_>
        <_>
          2 11 1 9 2.</_></rects>
      <tilted>0</tilted></_>
    <_>
      <rects>
        <_>
          1 18 23 4 -1.</_>
        <_>
          1 20 23 2 2.</_></rects>
      <tilted>0</tilted></_>
    <_>
      <rects>
        <_>
          1 22 20 2 -1.</_>
        <_>
          1 23 20 1 2.</_></rects>
      <tilted>0</tilted></_>
    <_>
      <rects>
        <_>
          2 0 8 8 -1.</_>
        <_>
          6 0 4 8 2.</_></rects>
      <tilted>0</tilted></_>
    <_>
      <rects>
        <_>
          2 9 11 12 -1.</_>
        <_>
          2 13 11 4 2.</_></rects>
      <tilted>0</tilted></_>
    <_>
      <rects>
        <_>
          2 11 18 12 -1.</_>
        <_>
          2 17 18 6 2.</_></rects>
      <tilted>0</tilted></_>
    <_>
      <rects>
        <_>
          3 0 21 24 -1.</_>
        <_>
          3 8 21 8 2.</_></rects>
      <tilted>0</tilted></_>
    <_>
      <rects>
        <_>
          3 1 2 23 -1.</_>
        <_>
          4 1 1 23 2.</_></rects>
      <tilted>0</tilted></_>
    <_>
      <rects>
        <_>
          3 4 1 9 -1.</_>
        <_>
          3 7 1 3 2.</_></rects>
      <tilted>0</tilted></_>
    <_>
      <rects>
        <_>
          3 5 13 2 -1.</_>
        <_>
          3 6 13 1 2.</_></rects>
      <tilted>0</tilted></_>
    <_>
      <rects>
        <_>
          3 6 4 2 -1.</_>
        <_>
          3 7 4 1 2.</_></rects>
      <tilted>0</tilted></_>
    <_>
      <rects>
        <_>
          3 9 2 2 -1.</_>
        <_>
          3 9 1 1 2.</_>
        <_>
          4 10 1 1 2.</_></rects>
      <tilted>0</tilted></_>
    <_>
      <rects>
        <_>
          3 13 18 4 -1.</_>
        <_>
          3 13 9 2 2.</_>
        <_>
          12 15 9 2 2.</_></rects>
      <tilted>0</tilted></_>
    <_>
      <rects>
        <_>
          3 13 17 6 -1.</_>
        <_>
          3 16 17 3 2.</_></rects>
      <tilted>0</tilted></_>
    <_>
      <rects>
        <_>
          3 16 4 1 -1.</_>
        <_>
          5 16 2 1 2.</_></rects>
      <tilted>0</tilted></_>
    <_>
      <rects>
        <_>
          3 20 6 2 -1.</_>
        <_>
          3 21 6 1 2.</_></rects>
      <tilted>0</tilted></_>
    <_>
      <rects>
        <_>
          3 21 8 2 -1.</_>
        <_>
          3 22 8 1 2.</_></rects>
      <tilted>0</tilted></_>
    <_>
      <rects>
        <_>
          3 22 12 1 -1.</_>
        <_>
          7 22 4 1 2.</_></rects>
      <tilted>0</tilted></_>
    <_>
      <rects>
        <_>
          3 22 16 2 -1.</_>
        <_>
          3 23 16 1 2.</_></rects>
      <tilted>0</tilted></_>
    <_>
      <rects>
        <_>
          4 0 12 10 -1.</_>
        <_>
          4 5 12 5 2.</_></rects>
      <tilted>0</tilted></_>
    <_>
      <rects>
        <_>
          4 0 13 2 -1.</_>
        <_>
          4 1 13 1 2.</_></rects>
      <tilted>0</tilted></_>
    <_>
      <rects>
        <_>
          4 0 13 12 -1.</_>
        <_>
          4 6 13 6 2.</_></rects>
      <tilted>0</tilted></_>
    <_>
      <rects>
        <_>
          4 1 15 6 -1.</_>
        <_>
          4 4 15 3 2.</_></rects>
      <tilted>0</tilted></_>
    <_>
      <rects>
        <_>
          4 1 16 14 -1.</_>
        <_>
          4 8 16 7 2.</_></rects>
      <tilted>0</tilted></_>
    <_>
      <rects>
        <_>
          4 3 6 10 -1.</_>
        <_>
          4 3 3 5 2.</_>
        <_>
          7 8 3 5 2.</_></rects>
      <tilted>0</tilted></_>
    <_>
      <rects>
        <_>
          4 4 4 18 -1.</_>
        <_>
          6 4 2 18 2.</_></rects>
      <tilted>0</tilted></_>
    <_>
      <rects>
        <_>
          4 4 16 2 -1.</_>
        <_>
          4 5 16 1 2.</_></rects>
      <tilted>0</tilted></_>
    <_>
      <rects>
        <_>
          5 0 10 12 -1.</_>
        <_>
          5 6 10 6 2.</_></rects>
      <tilted>0</tilted></_>
    <_>
      <rects>
        <_>
          5 0 12 12 -1.</_>
        <_>
          5 6 12 6 2.</_></rects>
      <tilted>0</tilted></_>
    <_>
      <rects>
        <_>
          5 7 5 10 -1.</_>
        <_>
          5 12 5 5 2.</_></rects>
      <tilted>0</tilted></_>
    <_>
      <rects>
        <_>
          5 13 1 4 -1.</_>
        <_>
          5 15 1 2 2.</_></rects>
      <tilted>0</tilted></_>
    <_>
      <rects>
        <_>
          5 22 10 2 -1.</_>
        <_>
          5 22 5 1 2.</_>
        <_>
          10 23 5 1 2.</_></rects>
      <tilted>0</tilted></_>
    <_>
      <rects>
        <_>
          6 0 12 4 -1.</_>
        <_>
          6 2 12 2 2.</_></rects>
      <tilted>0</tilted></_>
    <_>
      <rects>
        <_>
          6 8 9 11 -1.</_>
        <_>
          9 8 3 11 2.</_></rects>
      <tilted>0</tilted></_>
    <_>
      <rects>
        <_>
          6 9 3 2 -1.</_>
        <_>
          6 10 3 1 2.</_></rects>
      <tilted>0</tilted></_>
    <_>
      <rects>
        <_>
          6 14 2 1 -1.</_>
        <_>
          7 14 1 1 2.</_></rects>
      <tilted>0</tilted></_>
    <_>
      <rects>
        <_>
          6 18 11 6 -1.</_>
        <_>
          6 21 11 3 2.</_></rects>
      <tilted>0</tilted></_>
    <_>
      <rects>
        <_>
          6 20 12 4 -1.</_>
        <_>
          6 22 12 2 2.</_></rects>
      <tilted>0</tilted></_>
    <_>
      <rects>
        <_>
          6 20 15 4 -1.</_>
        <_>
          6 22 15 2 2.</_></rects>
      <tilted>0</tilted></_>
    <_>
      <rects>
        <_>
          7 0 2 4 -1.</_>
        <_>
          7 2 2 2 2.</_></rects>
      <tilted>0</tilted></_>
    <_>
      <rects>
        <_>
          7 2 2 9 -1.</_>
        <_>
          8 2 1 9 2.</_></rects>
      <tilted>0</tilted></_>
    <_>
      <rects>
        <_>
          7 2 2 14 -1.</_>
        <_>
          8 2 1 14 2.</_></rects>
      <tilted>0</tilted></_>
    <_>
      <rects>
        <_>
          7 5 10 2 -1.</_>
        <_>
          7 5 5 1 2.</_>
        <_>
          12 6 5 1 2.</_></rects>
      <tilted>0</tilted></_>
    <_>
      <rects>
        <_>
          7 10 3 2 -1.</_>
        <_>
          7 11 3 1 2.</_></rects>
      <tilted>0</tilted></_>
    <_>
      <rects>
        <_>
          7 20 6 4 -1.</_>
        <_>
          7 20 3 2 2.</_>
        <_>
          10 22 3 2 2.</_></rects>
      <tilted>0</tilted></_>
    <_>
      <rects>
        <_>
          8 0 10 12 -1.</_>
        <_>
          8 0 5 6 2.</_>
        <_>
          13 6 5 6 2.</_></rects>
      <tilted>0</tilted></_>
    <_>
      <rects>
        <_>
          8 0 11 8 -1.</_>
        <_>
          8 4 11 4 2.</_></rects>
      <tilted>0</tilted></_>
    <_>
      <rects>
        <_>
          8 1 16 1 -1.</_>
        <_>
          16 1 8 1 2.</_></rects>
      <tilted>0</tilted></_>
    <_>
      <rects>
        <_>
          8 3 12 1 -1.</_>
        <_>
          14 3 6 1 2.</_></rects>
      <tilted>0</tilted></_>
    <_>
      <rects>
        <_>
          8 10 2 14 -1.</_>
        <_>
          8 10 1 7 2.</_>
        <_>
          9 17 1 7 2.</_></rects>
      <tilted>0</tilted></_>
    <_>
      <rects>
        <_>
          8 14 2 6 -1.</_>
        <_>
          8 17 2 3 2.</_></rects>
      <tilted>0</tilted></_>
    <_>
      <rects>
        <_>
          8 14 15 3 -1.</_>
        <_>
          13 14 5 3 2.</_></rects>
      <tilted>0</tilted></_>
    <_>
      <rects>
        <_>
          8 17 7 2 -1.</_>
        <_>
          8 18 7 1 2.</_></rects>
      <tilted>0</tilted></_>
    <_>
      <rects>
        <_>
          8 18 2 3 -1.</_>
        <_>
          9 18 1 3 2.</_></rects>
      <tilted>0</tilted></_>
    <_>
      <rects>
        <_>
          8 23 8 1 -1.</_>
        <_>
          12 23 4 1 2.</_></rects>
      <tilted>0</tilted></_>
    <_>
      <rects>
        <_>
          9 0 9 1 -1.</_>
        <_>
          12 0 3 1 2.</_></rects>
      <tilted>0</tilted></_>
    <_>
      <rects>
        <_>
          9 1 4 15 -1.</_>
        <_>
          11 1 2 15 2.</_></rects>
      <tilted>0</tilted></_>
    <_>
      <rects>
        <_>
          9 3 3 12 -1.</_>
        <_>
          9 7 3 4 2.</_></rects>
      <tilted>0</tilted></_>
    <_>
      <rects>
        <_>
          9 3 8 10 -1.</_>
        <_>
          9 3 4 5 2.</_>
        <_>
          13 8 4 5 2.</_></rects>
      <tilted>0</tilted></_>
    <_>
      <rects>
        <_>
          9 3 14 2 -1.</_>
        <_>
          9 3 7 1 2.</_>
        <_>
          16 4 7 1 2.</_></rects>
      <tilted>0</tilted></_>
    <_>
      <rects>
        <_>
          9 5 3 2 -1.</_>
        <_>
          9 6 3 1 2.</_></rects>
      <tilted>0</tilted></_>
    <_>
      <rects>
        <_>
          9 8 4 2 -1.</_>
        <_>
          11 8 2 2 2.</_></rects>
      <tilted>0</tilted></_>
    <_>
      <rects>
        <_>
          9 8 2 6 -1.</_>
        <_>
          9 11 2 3 2.</_></rects>
      <tilted>0</tilted></_>
    <_>
      <rects>
        <_>
          9 11 14 2 -1.</_>
        <_>
          9 11 7 1 2.</_>
        <_>
          16 12 7 1 2.</_></rects>
      <tilted>0</tilted></_>
    <_>
      <rects>
        <_>
          9 13 4 3 -1.</_>
        <_>
          9 14 4 1 2.</_></rects>
      <tilted>0</tilted></_>
    <_>
      <rects>
        <_>
          9 13 13 2 -1.</_>
        <_>
          9 14 13 1 2.</_></rects>
      <tilted>0</tilted></_>
    <_>
      <rects>
        <_>
          9 18 11 6 -1.</_>
        <_>
          9 21 11 3 2.</_></rects>
      <tilted>0</tilted></_>
    <_>
      <rects>
        <_>
          9 21 6 3 -1.</_>
        <_>
          11 21 2 3 2.</_></rects>
      <tilted>0</tilted></_>
    <_>
      <rects>
        <_>
          10 0 12 6 -1.</_>
        <_>
          10 3 12 3 2.</_></rects>
      <tilted>0</tilted></_>
    <_>
      <rects>
        <_>
          10 1 2 13 -1.</_>
        <_>
          11 1 1 13 2.</_></rects>
      <tilted>0</tilted></_>
    <_>
      <rects>
        <_>
          10 6 4 16 -1.</_>
        <_>
          10 14 4 8 2.</_></rects>
      <tilted>0</tilted></_>
    <_>
      <rects>
        <_>
          10 14 2 6 -1.</_>
        <_>
          10 14 1 3 2.</_>
        <_>
          11 17 1 3 2.</_></rects>
      <tilted>0</tilted></_>
    <_>
      <rects>
        <_>
          10 20 11 2 -1.</_>
        <_>
          10 21 11 1 2.</_></rects>
      <tilted>0</tilted></_>
    <_>
      <rects>
        <_>
          11 0 2 1 -1.</_>
        <_>
          12 0 1 1 2.</_></rects>
      <tilted>0</tilted></_>
    <_>
      <rects>
        <_>
          11 1 2 1 -1.</_>
        <_>
          12 1 1 1 2.</_></rects>
      <tilted>0</tilted></_>
    <_>
      <rects>
        <_>
          11 2 2 2 -1.</_>
        <_>
          11 2 1 1 2.</_>
        <_>
          12 3 1 1 2.</_></rects>
      <tilted>0</tilted></_>
    <_>
      <rects>
        <_>
          11 4 13 4 -1.</_>
        <_>
          11 6 13 2 2.</_></rects>
      <tilted>0</tilted></_>
    <_>
      <rects>
        <_>
          11 7 12 1 -1.</_>
        <_>
          17 7 6 1 2.</_></rects>
      <tilted>0</tilted></_>
    <_>
      <rects>
        <_>
          12 0 1 2 -1.</_>
        <_>
          12 1 1 1 2.</_></rects>
      <tilted>0</tilted></_>
    <_>
      <rects>
        <_>
          12 0 4 1 -1.</_>
        <_>
          14 0 2 1 2.</_></rects>
      <tilted>0</tilted></_>
    <_>
      <rects>
        <_>
          12 0 6 2 -1.</_>
        <_>
          12 1 6 1 2.</_></rects>
      <tilted>0</tilted></_>
    <_>
      <rects>
        <_>
          12 1 4 8 -1.</_>
        <_>
          12 1 2 4 2.</_>
        <_>
          14 5 2 4 2.</_></rects>
      <tilted>0</tilted></_>
    <_>
      <rects>
        <_>
          12 2 6 22 -1.</_>
        <_>
          12 2 3 11 2.</_>
        <_>
          15 13 3 11 2.</_></rects>
      <tilted>0</tilted></_>
    <_>
      <rects>
        <_>
          12 6 4 12 -1.</_>
        <_>
          14 6 2 12 2.</_></rects>
      <tilted>0</tilted></_>
    <_>
      <rects>
        <_>
          12 7 4 12 -1.</_>
        <_>
          12 7 2 6 2.</_>
        <_>
          14 13 2 6 2.</_></rects>
      <tilted>0</tilted></_>
    <_>
      <rects>
        <_>
          12 13 4 6 -1.</_>
        <_>
          14 13 2 6 2.</_></rects>
      <tilted>0</tilted></_>
    <_>
      <rects>
        <_>
          12 20 6 4 -1.</_>
        <_>
          12 22 6 2 2.</_></rects>
      <tilted>0</tilted></_>
    <_>
      <rects>
        <_>
          13 0 2 9 -1.</_>
        <_>
          13 3 2 3 2.</_></rects>
      <tilted>0</tilted></_>
    <_>
      <rects>
        <_>
          13 6 2 16 -1.</_>
        <_>
          14 6 1 16 2.</_></rects>
      <tilted>0</tilted></_>
    <_>
      <rects>
        <_>
          14 0 10 10 -1.</_>
        <_>
          19 0 5 10 2.</_></rects>
      <tilted>0</tilted></_>
    <_>
      <rects>
        <_>
          14 1 1 9 -1.</_>
        <_>
          14 4 1 3 2.</_></rects>
      <tilted>0</tilted></_>
    <_>
      <rects>
        <_>
          14 1 10 10 -1.</_>
        <_>
          14 1 5 5 2.</_>
        <_>
          19 6 5 5 2.</_></rects>
      <tilted>0</tilted></_>
    <_>
      <rects>
        <_>
          14 4 4 16 -1.</_>
        <_>
          14 12 4 8 2.</_></rects>
      <tilted>0</tilted></_>
    <_>
      <rects>
        <_>
          14 4 5 2 -1.</_>
        <_>
          14 5 5 1 2.</_></rects>
      <tilted>0</tilted></_>
    <_>
      <rects>
        <_>
          14 4 10 16 -1.</_>
        <_>
          19 4 5 16 2.</_></rects>
      <tilted>0</tilted></_>
    <_>
      <rects>
        <_>
          14 5 2 14 -1.</_>
        <_>
          15 5 1 14 2.</_></rects>
      <tilted>0</tilted></_>
    <_>
      <rects>
        <_>
          14 6 10 14 -1.</_>
        <_>
          19 6 5 14 2.</_></rects>
      <tilted>0</tilted></_>
    <_>
      <rects>
        <_>
          14 10 8 11 -1.</_>
        <_>
          18 10 4 11 2.</_></rects>
      <tilted>0</tilted></_>
    <_>
      <rects>
        <_>
          14 13 2 2 -1.</_>
        <_>
          15 13 1 2 2.</_></rects>
      <tilted>0</tilted></_>
    <_>
      <rects>
        <_>
          14 13 8 5 -1.</_>
        <_>
          18 13 4 5 2.</_></rects>
      <tilted>0</tilted></_>
    <_>
      <rects>
        <_>
          14 15 1 9 -1.</_>
        <_>
          14 18 1 3 2.</_></rects>
      <tilted>0</tilted></_>
    <_>
      <rects>
        <_>
          14 17 8 6 -1.</_>
        <_>
          14 20 8 3 2.</_></rects>
      <tilted>0</tilted></_>
    <_>
      <rects>
        <_>
          15 17 2 6 -1.</_>
        <_>
          15 20 2 3 2.</_></rects>
      <tilted>0</tilted></_>
    <_>
      <rects>
        <_>
          16 0 2 2 -1.</_>
        <_>
          16 0 1 1 2.</_>
        <_>
          17 1 1 1 2.</_></rects>
      <tilted>0</tilted></_>
    <_>
      <rects>
        <_>
          16 4 1 14 -1.</_>
        <_>
          16 11 1 7 2.</_></rects>
      <tilted>0</tilted></_>
    <_>
      <rects>
        <_>
          16 9 4 2 -1.</_>
        <_>
          16 10 4 1 2.</_></rects>
      <tilted>0</tilted></_>
    <_>
      <rects>
        <_>
          17 4 2 2 -1.</_>
        <_>
          17 4 1 1 2.</_>
        <_>
          18 5 1 1 2.</_></rects>
      <tilted>0</tilted></_>
    <_>
      <rects>
        <_>
          17 4 4 16 -1.</_>
        <_>
          19 4 2 16 2.</_></rects>
      <tilted>0</tilted></_>
    <_>
      <rects>
        <_>
          17 7 4 2 -1.</_>
        <_>
          17 7 2 1 2.</_>
        <_>
          19 8 2 1 2.</_></rects>
      <tilted>0</tilted></_>
    <_>
      <rects>
        <_>
          17 10 6 2 -1.</_>
        <_>
          20 10 3 2 2.</_></rects>
      <tilted>0</tilted></_>
    <_>
      <rects>
        <_>
          17 12 4 6 -1.</_>
        <_>
          19 12 2 6 2.</_></rects>
      <tilted>0</tilted></_>
    <_>
      <rects>
        <_>
          17 13 4 6 -1.</_>
        <_>
          19 13 2 6 2.</_></rects>
      <tilted>0</tilted></_>
    <_>
      <rects>
        <_>
          17 18 3 6 -1.</_>
        <_>
          17 21 3 3 2.</_></rects>
      <tilted>0</tilted></_>
    <_>
      <rects>
        <_>
          18 4 4 9 -1.</_>
        <_>
          20 4 2 9 2.</_></rects>
      <tilted>0</tilted></_>
    <_>
      <rects>
        <_>
          18 5 4 4 -1.</_>
        <_>
          20 5 2 4 2.</_></rects>
      <tilted>0</tilted></_>
    <_>
      <rects>
        <_>
          18 7 4 7 -1.</_>
        <_>
          20 7 2 7 2.</_></rects>
      <tilted>0</tilted></_>
    <_>
      <rects>
        <_>
          18 7 6 6 -1.</_>
        <_>
          21 7 3 6 2.</_></rects>
      <tilted>0</tilted></_>
    <_>
      <rects>
        <_>
          18 8 2 9 -1.</_>
        <_>
          19 8 1 9 2.</_></rects>
      <tilted>0</tilted></_>
    <_>
      <rects>
        <_>
          18 23 4 1 -1.</_>
        <_>
          20 23 2 1 2.</_></rects>
      <tilted>0</tilted></_>
    <_>
      <rects>
        <_>
          18 23 6 1 -1.</_>
        <_>
          21 23 3 1 2.</_></rects>
      <tilted>0</tilted></_>
    <_>
      <rects>
        <_>
          19 18 4 5 -1.</_>
        <_>
          21 18 2 5 2.</_></rects>
      <tilted>0</tilted></_>
    <_>
      <rects>
        <_>
          20 0 2 2 -1.</_>
        <_>
          20 0 1 1 2.</_>
        <_>
          21 1 1 1 2.</_></rects>
      <tilted>0</tilted></_>
    <_>
      <rects>
        <_>
          21 0 2 2 -1.</_>
        <_>
          21 0 1 1 2.</_>
        <_>
          22 1 1 1 2.</_></rects>
      <tilted>0</tilted></_>
    <_>
      <rects>
        <_>
          21 3 2 2 -1.</_>
        <_>
          21 3 1 1 2.</_>
        <_>
          22 4 1 1 2.</_></rects>
      <tilted>0</tilted></_>
    <_>
      <rects>
        <_>
          22 1 2 2 -1.</_>
        <_>
          22 1 1 1 2.</_>
        <_>
          23 2 1 1 2.</_></rects>
      <tilted>0</tilted></_>
    <_>
      <rects>
        <_>
          23 3 1 12 -1.</_>
        <_>
          23 7 1 4 2.</_></rects>
      <tilted>0</tilted></_></features></cascade>
</opencv_storage>
